digraph Tree {
node [shape=box] ;
0 [label="Agency_Code <= 0.5\ngini = 0.44\nsamples = 2000\nvalue = [1345, 655]\nclass = No"] ;
1 [label="Sales <= 15.5\ngini = 0.479\nsamples = 656\nvalue = [260, 396]\nclass = Yes"] ;
0 -> 1 [labeldistance=2.5, labelangle=45, headlabel="True"] ;
2 [label="Sales <= 3.56\ngini = 0.284\nsamples = 70\nvalue = [58, 12]\nclass = No"] ;
1 -> 2 ;
3 [label="gini = 0.0\nsamples = 19\nvalue = [19, 0]\nclass = No"] ;
2 -> 3 ;
4 [label="Commision <= 3.775\ngini = 0.36\nsamples = 51\nvalue = [39, 12]\nclass = No"] ;
2 -> 4 ;
5 [label="Age <= 25.0\ngini = 0.477\nsamples = 28\nvalue = [17, 11]\nclass = No"] ;
4 -> 5 ;
6 [label="gini = 0.0\nsamples = 2\nvalue = [0, 2]\nclass = Yes"] ;
5 -> 6 ;
7 [label="Age <= 58.0\ngini = 0.453\nsamples = 26\nvalue = [17, 9]\nclass = No"] ;
5 -> 7 ;
8 [label="Commision <= 1.125\ngini = 0.435\nsamples = 25\nvalue = [17, 8]\nclass = No"] ;
7 -> 8 ;
9 [label="gini = 0.0\nsamples = 1\nvalue = [0, 1]\nclass = Yes"] ;
8 -> 9 ;
10 [label="Age <= 46.0\ngini = 0.413\nsamples = 24\nvalue = [17, 7]\nclass = No"] ;
8 -> 10 ;
11 [label="Age <= 34.5\ngini = 0.5\nsamples = 8\nvalue = [4, 4]\nclass = No"] ;
10 -> 11 ;
12 [label="gini = 0.0\nsamples = 3\nvalue = [3, 0]\nclass = No"] ;
11 -> 12 ;
13 [label="Duration <= 2.5\ngini = 0.32\nsamples = 5\nvalue = [1, 4]\nclass = Yes"] ;
11 -> 13 ;
14 [label="gini = 0.0\nsamples = 1\nvalue = [1, 0]\nclass = No"] ;
13 -> 14 ;
15 [label="gini = 0.0\nsamples = 4\nvalue = [0, 4]\nclass = Yes"] ;
13 -> 15 ;
16 [label="Commision <= 2.59\ngini = 0.305\nsamples = 16\nvalue = [13, 3]\nclass = No"] ;
10 -> 16 ;
17 [label="Commision <= 1.98\ngini = 0.469\nsamples = 8\nvalue = [5, 3]\nclass = No"] ;
16 -> 17 ;
18 [label="Duration <= 44.5\ngini = 0.278\nsamples = 6\nvalue = [5, 1]\nclass = No"] ;
17 -> 18 ;
19 [label="gini = 0.0\nsamples = 4\nvalue = [4, 0]\nclass = No"] ;
18 -> 19 ;
20 [label="Sales <= 5.88\ngini = 0.5\nsamples = 2\nvalue = [1, 1]\nclass = No"] ;
18 -> 20 ;
21 [label="gini = 0.0\nsamples = 1\nvalue = [0, 1]\nclass = Yes"] ;
20 -> 21 ;
22 [label="gini = 0.0\nsamples = 1\nvalue = [1, 0]\nclass = No"] ;
20 -> 22 ;
23 [label="gini = 0.0\nsamples = 2\nvalue = [0, 2]\nclass = Yes"] ;
17 -> 23 ;
24 [label="gini = 0.0\nsamples = 8\nvalue = [8, 0]\nclass = No"] ;
16 -> 24 ;
25 [label="gini = 0.0\nsamples = 1\nvalue = [0, 1]\nclass = Yes"] ;
7 -> 25 ;
26 [label="Age <= 56.5\ngini = 0.083\nsamples = 23\nvalue = [22, 1]\nclass = No"] ;
4 -> 26 ;
27 [label="gini = 0.0\nsamples = 18\nvalue = [18, 0]\nclass = No"] ;
26 -> 27 ;
28 [label="Duration <= 7.5\ngini = 0.32\nsamples = 5\nvalue = [4, 1]\nclass = No"] ;
26 -> 28 ;
29 [label="Duration <= 5.0\ngini = 0.5\nsamples = 2\nvalue = [1, 1]\nclass = No"] ;
28 -> 29 ;
30 [label="gini = 0.0\nsamples = 1\nvalue = [1, 0]\nclass = No"] ;
29 -> 30 ;
31 [label="gini = 0.0\nsamples = 1\nvalue = [0, 1]\nclass = Yes"] ;
29 -> 31 ;
32 [label="gini = 0.0\nsamples = 3\nvalue = [3, 0]\nclass = No"] ;
28 -> 32 ;
33 [label="Sales <= 55.75\ngini = 0.452\nsamples = 586\nvalue = [202, 384]\nclass = Yes"] ;
1 -> 33 ;
34 [label="Commision <= 13.69\ngini = 0.494\nsamples = 302\nvalue = [135, 167]\nclass = Yes"] ;
33 -> 34 ;
35 [label="Duration <= 7.5\ngini = 0.489\nsamples = 289\nvalue = [123, 166]\nclass = Yes"] ;
34 -> 35 ;
36 [label="Commision <= 8.63\ngini = 0.495\nsamples = 60\nvalue = [33, 27]\nclass = No"] ;
35 -> 36 ;
37 [label="Age <= 27.5\ngini = 0.5\nsamples = 54\nvalue = [27, 27]\nclass = No"] ;
36 -> 37 ;
38 [label="Age <= 25.5\ngini = 0.32\nsamples = 10\nvalue = [2, 8]\nclass = Yes"] ;
37 -> 38 ;
39 [label="Commision <= 4.65\ngini = 0.5\nsamples = 4\nvalue = [2, 2]\nclass = No"] ;
38 -> 39 ;
40 [label="gini = 0.0\nsamples = 2\nvalue = [2, 0]\nclass = No"] ;
39 -> 40 ;
41 [label="gini = 0.0\nsamples = 2\nvalue = [0, 2]\nclass = Yes"] ;
39 -> 41 ;
42 [label="gini = 0.0\nsamples = 6\nvalue = [0, 6]\nclass = Yes"] ;
38 -> 42 ;
43 [label="Age <= 36.5\ngini = 0.491\nsamples = 44\nvalue = [25, 19]\nclass = No"] ;
37 -> 43 ;
44 [label="Sales <= 30.75\ngini = 0.423\nsamples = 23\nvalue = [16, 7]\nclass = No"] ;
43 -> 44 ;
45 [label="Age <= 28.5\ngini = 0.455\nsamples = 20\nvalue = [13, 7]\nclass = No"] ;
44 -> 45 ;
46 [label="gini = 0.0\nsamples = 3\nvalue = [3, 0]\nclass = No"] ;
45 -> 46 ;
47 [label="Age <= 35.0\ngini = 0.484\nsamples = 17\nvalue = [10, 7]\nclass = No"] ;
45 -> 47 ;
48 [label="Commision <= 5.44\ngini = 0.498\nsamples = 15\nvalue = [8, 7]\nclass = No"] ;
47 -> 48 ;
49 [label="Duration <= 4.5\ngini = 0.473\nsamples = 13\nvalue = [8, 5]\nclass = No"] ;
48 -> 49 ;
50 [label="gini = 0.0\nsamples = 2\nvalue = [2, 0]\nclass = No"] ;
49 -> 50 ;
51 [label="Age <= 33.0\ngini = 0.496\nsamples = 11\nvalue = [6, 5]\nclass = No"] ;
49 -> 51 ;
52 [label="Age <= 29.5\ngini = 0.5\nsamples = 10\nvalue = [5, 5]\nclass = No"] ;
51 -> 52 ;
53 [label="Commision <= 4.4\ngini = 0.444\nsamples = 3\nvalue = [2, 1]\nclass = No"] ;
52 -> 53 ;
54 [label="gini = 0.0\nsamples = 1\nvalue = [0, 1]\nclass = Yes"] ;
53 -> 54 ;
55 [label="gini = 0.0\nsamples = 2\nvalue = [2, 0]\nclass = No"] ;
53 -> 55 ;
56 [label="Duration <= 5.5\ngini = 0.49\nsamples = 7\nvalue = [3, 4]\nclass = Yes"] ;
52 -> 56 ;
57 [label="Commision <= 4.625\ngini = 0.444\nsamples = 3\nvalue = [2, 1]\nclass = No"] ;
56 -> 57 ;
58 [label="gini = 0.0\nsamples = 2\nvalue = [2, 0]\nclass = No"] ;
57 -> 58 ;
59 [label="gini = 0.0\nsamples = 1\nvalue = [0, 1]\nclass = Yes"] ;
57 -> 59 ;
60 [label="Age <= 30.5\ngini = 0.375\nsamples = 4\nvalue = [1, 3]\nclass = Yes"] ;
56 -> 60 ;
61 [label="gini = 0.0\nsamples = 2\nvalue = [0, 2]\nclass = Yes"] ;
60 -> 61 ;
62 [label="Sales <= 18.5\ngini = 0.5\nsamples = 2\nvalue = [1, 1]\nclass = No"] ;
60 -> 62 ;
63 [label="gini = 0.0\nsamples = 1\nvalue = [0, 1]\nclass = Yes"] ;
62 -> 63 ;
64 [label="gini = 0.0\nsamples = 1\nvalue = [1, 0]\nclass = No"] ;
62 -> 64 ;
65 [label="gini = 0.0\nsamples = 1\nvalue = [1, 0]\nclass = No"] ;
51 -> 65 ;
66 [label="gini = 0.0\nsamples = 2\nvalue = [0, 2]\nclass = Yes"] ;
48 -> 66 ;
67 [label="gini = 0.0\nsamples = 2\nvalue = [2, 0]\nclass = No"] ;
47 -> 67 ;
68 [label="gini = 0.0\nsamples = 3\nvalue = [3, 0]\nclass = No"] ;
44 -> 68 ;
69 [label="Age <= 41.0\ngini = 0.49\nsamples = 21\nvalue = [9, 12]\nclass = Yes"] ;
43 -> 69 ;
70 [label="Duration <= 3.5\ngini = 0.245\nsamples = 7\nvalue = [1, 6]\nclass = Yes"] ;
69 -> 70 ;
71 [label="Sales <= 23.1\ngini = 0.444\nsamples = 3\nvalue = [1, 2]\nclass = Yes"] ;
70 -> 71 ;
72 [label="gini = 0.0\nsamples = 1\nvalue = [1, 0]\nclass = No"] ;
71 -> 72 ;
73 [label="gini = 0.0\nsamples = 2\nvalue = [0, 2]\nclass = Yes"] ;
71 -> 73 ;
74 [label="gini = 0.0\nsamples = 4\nvalue = [0, 4]\nclass = Yes"] ;
70 -> 74 ;
75 [label="Sales <= 31.25\ngini = 0.49\nsamples = 14\nvalue = [8, 6]\nclass = No"] ;
69 -> 75 ;
76 [label="Age <= 54.5\ngini = 0.444\nsamples = 12\nvalue = [8, 4]\nclass = No"] ;
75 -> 76 ;
77 [label="Duration <= 2.0\ngini = 0.219\nsamples = 8\nvalue = [7, 1]\nclass = No"] ;
76 -> 77 ;
78 [label="gini = 0.0\nsamples = 1\nvalue = [0, 1]\nclass = Yes"] ;
77 -> 78 ;
79 [label="gini = 0.0\nsamples = 7\nvalue = [7, 0]\nclass = No"] ;
77 -> 79 ;
80 [label="Sales <= 25.125\ngini = 0.375\nsamples = 4\nvalue = [1, 3]\nclass = Yes"] ;
76 -> 80 ;
81 [label="gini = 0.0\nsamples = 3\nvalue = [0, 3]\nclass = Yes"] ;
80 -> 81 ;
82 [label="gini = 0.0\nsamples = 1\nvalue = [1, 0]\nclass = No"] ;
80 -> 82 ;
83 [label="gini = 0.0\nsamples = 2\nvalue = [0, 2]\nclass = Yes"] ;
75 -> 83 ;
84 [label="gini = 0.0\nsamples = 6\nvalue = [6, 0]\nclass = No"] ;
36 -> 84 ;
85 [label="Duration <= 57.0\ngini = 0.477\nsamples = 229\nvalue = [90, 139]\nclass = Yes"] ;
35 -> 85 ;
86 [label="Commision <= 12.315\ngini = 0.468\nsamples = 204\nvalue = [76, 128]\nclass = Yes"] ;
85 -> 86 ;
87 [label="Commision <= 3.69\ngini = 0.454\nsamples = 178\nvalue = [62, 116]\nclass = Yes"] ;
86 -> 87 ;
88 [label="gini = 0.0\nsamples = 1\nvalue = [1, 0]\nclass = No"] ;
87 -> 88 ;
89 [label="Sales <= 21.725\ngini = 0.452\nsamples = 177\nvalue = [61, 116]\nclass = Yes"] ;
87 -> 89 ;
90 [label="Age <= 32.5\ngini = 0.49\nsamples = 42\nvalue = [18, 24]\nclass = Yes"] ;
89 -> 90 ;
91 [label="Sales <= 18.25\ngini = 0.388\nsamples = 19\nvalue = [5, 14]\nclass = Yes"] ;
90 -> 91 ;
92 [label="gini = 0.0\nsamples = 6\nvalue = [0, 6]\nclass = Yes"] ;
91 -> 92 ;
93 [label="Age <= 30.0\ngini = 0.473\nsamples = 13\nvalue = [5, 8]\nclass = Yes"] ;
91 -> 93 ;
94 [label="Duration <= 8.5\ngini = 0.444\nsamples = 12\nvalue = [4, 8]\nclass = Yes"] ;
93 -> 94 ;
95 [label="gini = 0.0\nsamples = 1\nvalue = [1, 0]\nclass = No"] ;
94 -> 95 ;
96 [label="Duration <= 15.0\ngini = 0.397\nsamples = 11\nvalue = [3, 8]\nclass = Yes"] ;
94 -> 96 ;
97 [label="Sales <= 20.5\ngini = 0.245\nsamples = 7\nvalue = [1, 6]\nclass = Yes"] ;
96 -> 97 ;
98 [label="gini = 0.0\nsamples = 4\nvalue = [0, 4]\nclass = Yes"] ;
97 -> 98 ;
99 [label="Duration <= 10.5\ngini = 0.444\nsamples = 3\nvalue = [1, 2]\nclass = Yes"] ;
97 -> 99 ;
100 [label="gini = 0.0\nsamples = 1\nvalue = [1, 0]\nclass = No"] ;
99 -> 100 ;
101 [label="gini = 0.0\nsamples = 2\nvalue = [0, 2]\nclass = Yes"] ;
99 -> 101 ;
102 [label="Duration <= 18.0\ngini = 0.5\nsamples = 4\nvalue = [2, 2]\nclass = No"] ;
96 -> 102 ;
103 [label="gini = 0.0\nsamples = 1\nvalue = [1, 0]\nclass = No"] ;
102 -> 103 ;
104 [label="Duration <= 20.0\ngini = 0.444\nsamples = 3\nvalue = [1, 2]\nclass = Yes"] ;
102 -> 104 ;
105 [label="gini = 0.0\nsamples = 1\nvalue = [0, 1]\nclass = Yes"] ;
104 -> 105 ;
106 [label="Commision <= 4.815\ngini = 0.5\nsamples = 2\nvalue = [1, 1]\nclass = No"] ;
104 -> 106 ;
107 [label="gini = 0.0\nsamples = 1\nvalue = [0, 1]\nclass = Yes"] ;
106 -> 107 ;
108 [label="gini = 0.0\nsamples = 1\nvalue = [1, 0]\nclass = No"] ;
106 -> 108 ;
109 [label="gini = 0.0\nsamples = 1\nvalue = [1, 0]\nclass = No"] ;
93 -> 109 ;
110 [label="Age <= 34.5\ngini = 0.491\nsamples = 23\nvalue = [13, 10]\nclass = No"] ;
90 -> 110 ;
111 [label="gini = 0.0\nsamples = 2\nvalue = [2, 0]\nclass = No"] ;
110 -> 111 ;
112 [label="Sales <= 18.25\ngini = 0.499\nsamples = 21\nvalue = [11, 10]\nclass = No"] ;
110 -> 112 ;
113 [label="Duration <= 26.0\ngini = 0.444\nsamples = 9\nvalue = [3, 6]\nclass = Yes"] ;
112 -> 113 ;
114 [label="Duration <= 14.0\ngini = 0.5\nsamples = 6\nvalue = [3, 3]\nclass = No"] ;
113 -> 114 ;
115 [label="gini = 0.0\nsamples = 2\nvalue = [0, 2]\nclass = Yes"] ;
114 -> 115 ;
116 [label="Age <= 41.0\ngini = 0.375\nsamples = 4\nvalue = [3, 1]\nclass = No"] ;
114 -> 116 ;
117 [label="gini = 0.0\nsamples = 2\nvalue = [2, 0]\nclass = No"] ;
116 -> 117 ;
118 [label="Duration <= 19.5\ngini = 0.5\nsamples = 2\nvalue = [1, 1]\nclass = No"] ;
116 -> 118 ;
119 [label="gini = 0.0\nsamples = 1\nvalue = [0, 1]\nclass = Yes"] ;
118 -> 119 ;
120 [label="gini = 0.0\nsamples = 1\nvalue = [1, 0]\nclass = No"] ;
118 -> 120 ;
121 [label="gini = 0.0\nsamples = 3\nvalue = [0, 3]\nclass = Yes"] ;
113 -> 121 ;
122 [label="Age <= 39.5\ngini = 0.444\nsamples = 12\nvalue = [8, 4]\nclass = No"] ;
112 -> 122 ;
123 [label="Duration <= 11.5\ngini = 0.444\nsamples = 3\nvalue = [1, 2]\nclass = Yes"] ;
122 -> 123 ;
124 [label="gini = 0.0\nsamples = 1\nvalue = [1, 0]\nclass = No"] ;
123 -> 124 ;
125 [label="gini = 0.0\nsamples = 2\nvalue = [0, 2]\nclass = Yes"] ;
123 -> 125 ;
126 [label="Duration <= 13.0\ngini = 0.346\nsamples = 9\nvalue = [7, 2]\nclass = No"] ;
122 -> 126 ;
127 [label="Age <= 54.0\ngini = 0.48\nsamples = 5\nvalue = [3, 2]\nclass = No"] ;
126 -> 127 ;
128 [label="Age <= 43.5\ngini = 0.444\nsamples = 3\nvalue = [1, 2]\nclass = Yes"] ;
127 -> 128 ;
129 [label="gini = 0.0\nsamples = 1\nvalue = [1, 0]\nclass = No"] ;
128 -> 129 ;
130 [label="gini = 0.0\nsamples = 2\nvalue = [0, 2]\nclass = Yes"] ;
128 -> 130 ;
131 [label="gini = 0.0\nsamples = 2\nvalue = [2, 0]\nclass = No"] ;
127 -> 131 ;
132 [label="gini = 0.0\nsamples = 4\nvalue = [4, 0]\nclass = No"] ;
126 -> 132 ;
133 [label="Sales <= 22.75\ngini = 0.434\nsamples = 135\nvalue = [43, 92]\nclass = Yes"] ;
89 -> 133 ;
134 [label="gini = 0.0\nsamples = 8\nvalue = [0, 8]\nclass = Yes"] ;
133 -> 134 ;
135 [label="Age <= 25.5\ngini = 0.448\nsamples = 127\nvalue = [43, 84]\nclass = Yes"] ;
133 -> 135 ;
136 [label="Duration <= 13.0\ngini = 0.499\nsamples = 23\nvalue = [11, 12]\nclass = Yes"] ;
135 -> 136 ;
137 [label="gini = 0.0\nsamples = 7\nvalue = [0, 7]\nclass = Yes"] ;
136 -> 137 ;
138 [label="Commision <= 7.925\ngini = 0.43\nsamples = 16\nvalue = [11, 5]\nclass = No"] ;
136 -> 138 ;
139 [label="gini = 0.0\nsamples = 7\nvalue = [7, 0]\nclass = No"] ;
138 -> 139 ;
140 [label="Sales <= 36.75\ngini = 0.494\nsamples = 9\nvalue = [4, 5]\nclass = Yes"] ;
138 -> 140 ;
141 [label="gini = 0.0\nsamples = 3\nvalue = [0, 3]\nclass = Yes"] ;
140 -> 141 ;
142 [label="Age <= 21.0\ngini = 0.444\nsamples = 6\nvalue = [4, 2]\nclass = No"] ;
140 -> 142 ;
143 [label="gini = 0.0\nsamples = 1\nvalue = [0, 1]\nclass = Yes"] ;
142 -> 143 ;
144 [label="Age <= 23.5\ngini = 0.32\nsamples = 5\nvalue = [4, 1]\nclass = No"] ;
142 -> 144 ;
145 [label="gini = 0.0\nsamples = 3\nvalue = [3, 0]\nclass = No"] ;
144 -> 145 ;
146 [label="Age <= 24.5\ngini = 0.5\nsamples = 2\nvalue = [1, 1]\nclass = No"] ;
144 -> 146 ;
147 [label="gini = 0.0\nsamples = 1\nvalue = [0, 1]\nclass = Yes"] ;
146 -> 147 ;
148 [label="gini = 0.0\nsamples = 1\nvalue = [1, 0]\nclass = No"] ;
146 -> 148 ;
149 [label="Commision <= 12.035\ngini = 0.426\nsamples = 104\nvalue = [32, 72]\nclass = Yes"] ;
135 -> 149 ;
150 [label="Sales <= 47.75\ngini = 0.438\nsamples = 99\nvalue = [32, 67]\nclass = Yes"] ;
149 -> 150 ;
151 [label="Commision <= 11.815\ngini = 0.433\nsamples = 98\nvalue = [31, 67]\nclass = Yes"] ;
150 -> 151 ;
152 [label="Sales <= 30.025\ngini = 0.44\nsamples = 95\nvalue = [31, 64]\nclass = Yes"] ;
151 -> 152 ;
153 [label="Duration <= 13.5\ngini = 0.381\nsamples = 43\nvalue = [11, 32]\nclass = Yes"] ;
152 -> 153 ;
154 [label="Age <= 26.5\ngini = 0.461\nsamples = 25\nvalue = [9, 16]\nclass = Yes"] ;
153 -> 154 ;
155 [label="gini = 0.0\nsamples = 1\nvalue = [1, 0]\nclass = No"] ;
154 -> 155 ;
156 [label="Age <= 32.5\ngini = 0.444\nsamples = 24\nvalue = [8, 16]\nclass = Yes"] ;
154 -> 156 ;
157 [label="Age <= 27.5\ngini = 0.219\nsamples = 8\nvalue = [1, 7]\nclass = Yes"] ;
156 -> 157 ;
158 [label="Commision <= 6.815\ngini = 0.444\nsamples = 3\nvalue = [1, 2]\nclass = Yes"] ;
157 -> 158 ;
159 [label="gini = 0.0\nsamples = 2\nvalue = [0, 2]\nclass = Yes"] ;
158 -> 159 ;
160 [label="gini = 0.0\nsamples = 1\nvalue = [1, 0]\nclass = No"] ;
158 -> 160 ;
161 [label="gini = 0.0\nsamples = 5\nvalue = [0, 5]\nclass = Yes"] ;
157 -> 161 ;
162 [label="Duration <= 12.0\ngini = 0.492\nsamples = 16\nvalue = [7, 9]\nclass = Yes"] ;
156 -> 162 ;
163 [label="Commision <= 5.865\ngini = 0.459\nsamples = 14\nvalue = [5, 9]\nclass = Yes"] ;
162 -> 163 ;
164 [label="gini = 0.0\nsamples = 1\nvalue = [1, 0]\nclass = No"] ;
163 -> 164 ;
165 [label="Age <= 37.5\ngini = 0.426\nsamples = 13\nvalue = [4, 9]\nclass = Yes"] ;
163 -> 165 ;
166 [label="gini = 0.0\nsamples = 3\nvalue = [0, 3]\nclass = Yes"] ;
165 -> 166 ;
167 [label="Age <= 60.0\ngini = 0.48\nsamples = 10\nvalue = [4, 6]\nclass = Yes"] ;
165 -> 167 ;
168 [label="Duration <= 10.5\ngini = 0.5\nsamples = 8\nvalue = [4, 4]\nclass = No"] ;
167 -> 168 ;
169 [label="Duration <= 9.5\ngini = 0.444\nsamples = 6\nvalue = [2, 4]\nclass = Yes"] ;
168 -> 169 ;
170 [label="Commision <= 7.365\ngini = 0.444\nsamples = 3\nvalue = [2, 1]\nclass = No"] ;
169 -> 170 ;
171 [label="gini = 0.0\nsamples = 2\nvalue = [2, 0]\nclass = No"] ;
170 -> 171 ;
172 [label="gini = 0.0\nsamples = 1\nvalue = [0, 1]\nclass = Yes"] ;
170 -> 172 ;
173 [label="gini = 0.0\nsamples = 3\nvalue = [0, 3]\nclass = Yes"] ;
169 -> 173 ;
174 [label="gini = 0.0\nsamples = 2\nvalue = [2, 0]\nclass = No"] ;
168 -> 174 ;
175 [label="gini = 0.0\nsamples = 2\nvalue = [0, 2]\nclass = Yes"] ;
167 -> 175 ;
176 [label="gini = 0.0\nsamples = 2\nvalue = [2, 0]\nclass = No"] ;
162 -> 176 ;
177 [label="Commision <= 5.94\ngini = 0.198\nsamples = 18\nvalue = [2, 16]\nclass = Yes"] ;
153 -> 177 ;
178 [label="Duration <= 34.5\ngini = 0.48\nsamples = 5\nvalue = [2, 3]\nclass = Yes"] ;
177 -> 178 ;
179 [label="Sales <= 23.45\ngini = 0.375\nsamples = 4\nvalue = [1, 3]\nclass = Yes"] ;
178 -> 179 ;
180 [label="gini = 0.0\nsamples = 2\nvalue = [0, 2]\nclass = Yes"] ;
179 -> 180 ;
181 [label="Duration <= 23.5\ngini = 0.5\nsamples = 2\nvalue = [1, 1]\nclass = No"] ;
179 -> 181 ;
182 [label="gini = 0.0\nsamples = 1\nvalue = [1, 0]\nclass = No"] ;
181 -> 182 ;
183 [label="gini = 0.0\nsamples = 1\nvalue = [0, 1]\nclass = Yes"] ;
181 -> 183 ;
184 [label="gini = 0.0\nsamples = 1\nvalue = [1, 0]\nclass = No"] ;
178 -> 184 ;
185 [label="gini = 0.0\nsamples = 13\nvalue = [0, 13]\nclass = Yes"] ;
177 -> 185 ;
186 [label="Commision <= 7.51\ngini = 0.473\nsamples = 52\nvalue = [20, 32]\nclass = Yes"] ;
152 -> 186 ;
187 [label="gini = 0.0\nsamples = 1\nvalue = [1, 0]\nclass = No"] ;
186 -> 187 ;
188 [label="Duration <= 24.5\ngini = 0.468\nsamples = 51\nvalue = [19, 32]\nclass = Yes"] ;
186 -> 188 ;
189 [label="Duration <= 20.0\ngini = 0.494\nsamples = 27\nvalue = [12, 15]\nclass = Yes"] ;
188 -> 189 ;
190 [label="Age <= 36.5\ngini = 0.469\nsamples = 24\nvalue = [9, 15]\nclass = Yes"] ;
189 -> 190 ;
191 [label="Sales <= 46.9\ngini = 0.337\nsamples = 14\nvalue = [3, 11]\nclass = Yes"] ;
190 -> 191 ;
192 [label="Commision <= 9.67\ngini = 0.26\nsamples = 13\nvalue = [2, 11]\nclass = Yes"] ;
191 -> 192 ;
193 [label="gini = 0.0\nsamples = 5\nvalue = [0, 5]\nclass = Yes"] ;
192 -> 193 ;
194 [label="Duration <= 9.5\ngini = 0.375\nsamples = 8\nvalue = [2, 6]\nclass = Yes"] ;
192 -> 194 ;
195 [label="gini = 0.0\nsamples = 1\nvalue = [1, 0]\nclass = No"] ;
194 -> 195 ;
196 [label="Age <= 29.5\ngini = 0.245\nsamples = 7\nvalue = [1, 6]\nclass = Yes"] ;
194 -> 196 ;
197 [label="Age <= 27.5\ngini = 0.444\nsamples = 3\nvalue = [1, 2]\nclass = Yes"] ;
196 -> 197 ;
198 [label="gini = 0.0\nsamples = 2\nvalue = [0, 2]\nclass = Yes"] ;
197 -> 198 ;
199 [label="gini = 0.0\nsamples = 1\nvalue = [1, 0]\nclass = No"] ;
197 -> 199 ;
200 [label="gini = 0.0\nsamples = 4\nvalue = [0, 4]\nclass = Yes"] ;
196 -> 200 ;
201 [label="gini = 0.0\nsamples = 1\nvalue = [1, 0]\nclass = No"] ;
191 -> 201 ;
202 [label="Sales <= 46.9\ngini = 0.48\nsamples = 10\nvalue = [6, 4]\nclass = No"] ;
190 -> 202 ;
203 [label="Duration <= 15.0\ngini = 0.375\nsamples = 8\nvalue = [6, 2]\nclass = No"] ;
202 -> 203 ;
204 [label="Duration <= 13.5\ngini = 0.48\nsamples = 5\nvalue = [3, 2]\nclass = No"] ;
203 -> 204 ;
205 [label="Commision <= 10.32\ngini = 0.375\nsamples = 4\nvalue = [3, 1]\nclass = No"] ;
204 -> 205 ;
206 [label="gini = 0.0\nsamples = 3\nvalue = [3, 0]\nclass = No"] ;
205 -> 206 ;
207 [label="gini = 0.0\nsamples = 1\nvalue = [0, 1]\nclass = Yes"] ;
205 -> 207 ;
208 [label="gini = 0.0\nsamples = 1\nvalue = [0, 1]\nclass = Yes"] ;
204 -> 208 ;
209 [label="gini = 0.0\nsamples = 3\nvalue = [3, 0]\nclass = No"] ;
203 -> 209 ;
210 [label="gini = 0.0\nsamples = 2\nvalue = [0, 2]\nclass = Yes"] ;
202 -> 210 ;
211 [label="gini = 0.0\nsamples = 3\nvalue = [3, 0]\nclass = No"] ;
189 -> 211 ;
212 [label="Age <= 29.5\ngini = 0.413\nsamples = 24\nvalue = [7, 17]\nclass = Yes"] ;
188 -> 212 ;
213 [label="gini = 0.0\nsamples = 4\nvalue = [0, 4]\nclass = Yes"] ;
212 -> 213 ;
214 [label="Age <= 32.0\ngini = 0.455\nsamples = 20\nvalue = [7, 13]\nclass = Yes"] ;
212 -> 214 ;
215 [label="Sales <= 35.15\ngini = 0.49\nsamples = 7\nvalue = [4, 3]\nclass = No"] ;
214 -> 215 ;
216 [label="Age <= 30.5\ngini = 0.444\nsamples = 3\nvalue = [1, 2]\nclass = Yes"] ;
215 -> 216 ;
217 [label="gini = 0.0\nsamples = 2\nvalue = [0, 2]\nclass = Yes"] ;
216 -> 217 ;
218 [label="gini = 0.0\nsamples = 1\nvalue = [1, 0]\nclass = No"] ;
216 -> 218 ;
219 [label="Product Name <= 2.0\ngini = 0.375\nsamples = 4\nvalue = [3, 1]\nclass = No"] ;
215 -> 219 ;
220 [label="Sales <= 37.25\ngini = 0.5\nsamples = 2\nvalue = [1, 1]\nclass = No"] ;
219 -> 220 ;
221 [label="gini = 0.0\nsamples = 1\nvalue = [1, 0]\nclass = No"] ;
220 -> 221 ;
222 [label="gini = 0.0\nsamples = 1\nvalue = [0, 1]\nclass = Yes"] ;
220 -> 222 ;
223 [label="gini = 0.0\nsamples = 2\nvalue = [2, 0]\nclass = No"] ;
219 -> 223 ;
224 [label="Duration <= 49.5\ngini = 0.355\nsamples = 13\nvalue = [3, 10]\nclass = Yes"] ;
214 -> 224 ;
225 [label="Sales <= 34.45\ngini = 0.278\nsamples = 12\nvalue = [2, 10]\nclass = Yes"] ;
224 -> 225 ;
226 [label="Duration <= 31.0\ngini = 0.5\nsamples = 2\nvalue = [1, 1]\nclass = No"] ;
225 -> 226 ;
227 [label="gini = 0.0\nsamples = 1\nvalue = [1, 0]\nclass = No"] ;
226 -> 227 ;
228 [label="gini = 0.0\nsamples = 1\nvalue = [0, 1]\nclass = Yes"] ;
226 -> 228 ;
229 [label="Age <= 60.0\ngini = 0.18\nsamples = 10\nvalue = [1, 9]\nclass = Yes"] ;
225 -> 229 ;
230 [label="gini = 0.0\nsamples = 6\nvalue = [0, 6]\nclass = Yes"] ;
229 -> 230 ;
231 [label="Product Name <= 2.0\ngini = 0.375\nsamples = 4\nvalue = [1, 3]\nclass = Yes"] ;
229 -> 231 ;
232 [label="Duration <= 31.0\ngini = 0.5\nsamples = 2\nvalue = [1, 1]\nclass = No"] ;
231 -> 232 ;
233 [label="gini = 0.0\nsamples = 1\nvalue = [1, 0]\nclass = No"] ;
232 -> 233 ;
234 [label="gini = 0.0\nsamples = 1\nvalue = [0, 1]\nclass = Yes"] ;
232 -> 234 ;
235 [label="gini = 0.0\nsamples = 2\nvalue = [0, 2]\nclass = Yes"] ;
231 -> 235 ;
236 [label="gini = 0.0\nsamples = 1\nvalue = [1, 0]\nclass = No"] ;
224 -> 236 ;
237 [label="gini = 0.0\nsamples = 3\nvalue = [0, 3]\nclass = Yes"] ;
151 -> 237 ;
238 [label="gini = 0.0\nsamples = 1\nvalue = [1, 0]\nclass = No"] ;
150 -> 238 ;
239 [label="gini = 0.0\nsamples = 5\nvalue = [0, 5]\nclass = Yes"] ;
149 -> 239 ;
240 [label="Sales <= 40.25\ngini = 0.497\nsamples = 26\nvalue = [14, 12]\nclass = No"] ;
86 -> 240 ;
241 [label="gini = 0.0\nsamples = 7\nvalue = [7, 0]\nclass = No"] ;
240 -> 241 ;
242 [label="Duration <= 19.0\ngini = 0.465\nsamples = 19\nvalue = [7, 12]\nclass = Yes"] ;
240 -> 242 ;
243 [label="Duration <= 14.5\ngini = 0.494\nsamples = 9\nvalue = [5, 4]\nclass = No"] ;
242 -> 243 ;
244 [label="Age <= 43.0\ngini = 0.48\nsamples = 5\nvalue = [2, 3]\nclass = Yes"] ;
243 -> 244 ;
245 [label="Sales <= 53.75\ngini = 0.444\nsamples = 3\nvalue = [2, 1]\nclass = No"] ;
244 -> 245 ;
246 [label="gini = 0.0\nsamples = 1\nvalue = [1, 0]\nclass = No"] ;
245 -> 246 ;
247 [label="Age <= 30.5\ngini = 0.5\nsamples = 2\nvalue = [1, 1]\nclass = No"] ;
245 -> 247 ;
248 [label="gini = 0.0\nsamples = 1\nvalue = [0, 1]\nclass = Yes"] ;
247 -> 248 ;
249 [label="gini = 0.0\nsamples = 1\nvalue = [1, 0]\nclass = No"] ;
247 -> 249 ;
250 [label="gini = 0.0\nsamples = 2\nvalue = [0, 2]\nclass = Yes"] ;
244 -> 250 ;
251 [label="Age <= 36.0\ngini = 0.375\nsamples = 4\nvalue = [3, 1]\nclass = No"] ;
243 -> 251 ;
252 [label="gini = 0.0\nsamples = 1\nvalue = [0, 1]\nclass = Yes"] ;
251 -> 252 ;
253 [label="gini = 0.0\nsamples = 3\nvalue = [3, 0]\nclass = No"] ;
251 -> 253 ;
254 [label="Age <= 32.0\ngini = 0.32\nsamples = 10\nvalue = [2, 8]\nclass = Yes"] ;
242 -> 254 ;
255 [label="Age <= 26.0\ngini = 0.5\nsamples = 4\nvalue = [2, 2]\nclass = No"] ;
254 -> 255 ;
256 [label="gini = 0.0\nsamples = 2\nvalue = [0, 2]\nclass = Yes"] ;
255 -> 256 ;
257 [label="gini = 0.0\nsamples = 2\nvalue = [2, 0]\nclass = No"] ;
255 -> 257 ;
258 [label="gini = 0.0\nsamples = 6\nvalue = [0, 6]\nclass = Yes"] ;
254 -> 258 ;
259 [label="Sales <= 32.025\ngini = 0.493\nsamples = 25\nvalue = [14, 11]\nclass = No"] ;
85 -> 259 ;
260 [label="Sales <= 21.75\ngini = 0.355\nsamples = 13\nvalue = [10, 3]\nclass = No"] ;
259 -> 260 ;
261 [label="Commision <= 6.36\ngini = 0.444\nsamples = 3\nvalue = [1, 2]\nclass = Yes"] ;
260 -> 261 ;
262 [label="Duration <= 78.5\ngini = 0.5\nsamples = 2\nvalue = [1, 1]\nclass = No"] ;
261 -> 262 ;
263 [label="gini = 0.0\nsamples = 1\nvalue = [0, 1]\nclass = Yes"] ;
262 -> 263 ;
264 [label="gini = 0.0\nsamples = 1\nvalue = [1, 0]\nclass = No"] ;
262 -> 264 ;
265 [label="gini = 0.0\nsamples = 1\nvalue = [0, 1]\nclass = Yes"] ;
261 -> 265 ;
266 [label="Duration <= 137.5\ngini = 0.18\nsamples = 10\nvalue = [9, 1]\nclass = No"] ;
260 -> 266 ;
267 [label="gini = 0.0\nsamples = 8\nvalue = [8, 0]\nclass = No"] ;
266 -> 267 ;
268 [label="Commision <= 8.29\ngini = 0.5\nsamples = 2\nvalue = [1, 1]\nclass = No"] ;
266 -> 268 ;
269 [label="gini = 0.0\nsamples = 1\nvalue = [0, 1]\nclass = Yes"] ;
268 -> 269 ;
270 [label="gini = 0.0\nsamples = 1\nvalue = [1, 0]\nclass = No"] ;
268 -> 270 ;
271 [label="Commision <= 10.065\ngini = 0.444\nsamples = 12\nvalue = [4, 8]\nclass = Yes"] ;
259 -> 271 ;
272 [label="gini = 0.0\nsamples = 5\nvalue = [0, 5]\nclass = Yes"] ;
271 -> 272 ;
273 [label="Age <= 25.5\ngini = 0.49\nsamples = 7\nvalue = [4, 3]\nclass = No"] ;
271 -> 273 ;
274 [label="gini = 0.0\nsamples = 1\nvalue = [0, 1]\nclass = Yes"] ;
273 -> 274 ;
275 [label="Duration <= 91.5\ngini = 0.444\nsamples = 6\nvalue = [4, 2]\nclass = No"] ;
273 -> 275 ;
276 [label="gini = 0.0\nsamples = 3\nvalue = [3, 0]\nclass = No"] ;
275 -> 276 ;
277 [label="Duration <= 131.5\ngini = 0.444\nsamples = 3\nvalue = [1, 2]\nclass = Yes"] ;
275 -> 277 ;
278 [label="gini = 0.0\nsamples = 2\nvalue = [0, 2]\nclass = Yes"] ;
277 -> 278 ;
279 [label="gini = 0.0\nsamples = 1\nvalue = [1, 0]\nclass = No"] ;
277 -> 279 ;
280 [label="Age <= 26.0\ngini = 0.142\nsamples = 13\nvalue = [12, 1]\nclass = No"] ;
34 -> 280 ;
281 [label="Duration <= 13.5\ngini = 0.444\nsamples = 3\nvalue = [2, 1]\nclass = No"] ;
280 -> 281 ;
282 [label="gini = 0.0\nsamples = 1\nvalue = [0, 1]\nclass = Yes"] ;
281 -> 282 ;
283 [label="gini = 0.0\nsamples = 2\nvalue = [2, 0]\nclass = No"] ;
281 -> 283 ;
284 [label="gini = 0.0\nsamples = 10\nvalue = [10, 0]\nclass = No"] ;
280 -> 284 ;
285 [label="Duration <= 10.5\ngini = 0.361\nsamples = 284\nvalue = [67, 217]\nclass = Yes"] ;
33 -> 285 ;
286 [label="gini = 0.0\nsamples = 5\nvalue = [5, 0]\nclass = No"] ;
285 -> 286 ;
287 [label="Commision <= 2.025\ngini = 0.346\nsamples = 279\nvalue = [62, 217]\nclass = Yes"] ;
285 -> 287 ;
288 [label="gini = 0.0\nsamples = 1\nvalue = [1, 0]\nclass = No"] ;
287 -> 288 ;
289 [label="Commision <= 15.25\ngini = 0.343\nsamples = 278\nvalue = [61, 217]\nclass = Yes"] ;
287 -> 289 ;
290 [label="gini = 0.0\nsamples = 13\nvalue = [0, 13]\nclass = Yes"] ;
289 -> 290 ;
291 [label="Duration <= 44.5\ngini = 0.354\nsamples = 265\nvalue = [61, 204]\nclass = Yes"] ;
289 -> 291 ;
292 [label="Commision <= 40.275\ngini = 0.441\nsamples = 67\nvalue = [22, 45]\nclass = Yes"] ;
291 -> 292 ;
293 [label="Age <= 22.5\ngini = 0.417\nsamples = 64\nvalue = [19, 45]\nclass = Yes"] ;
292 -> 293 ;
294 [label="gini = 0.0\nsamples = 3\nvalue = [3, 0]\nclass = No"] ;
293 -> 294 ;
295 [label="Age <= 49.0\ngini = 0.387\nsamples = 61\nvalue = [16, 45]\nclass = Yes"] ;
293 -> 295 ;
296 [label="Age <= 34.5\ngini = 0.422\nsamples = 53\nvalue = [16, 37]\nclass = Yes"] ;
295 -> 296 ;
297 [label="Duration <= 40.5\ngini = 0.32\nsamples = 35\nvalue = [7, 28]\nclass = Yes"] ;
296 -> 297 ;
298 [label="Sales <= 135.125\ngini = 0.257\nsamples = 33\nvalue = [5, 28]\nclass = Yes"] ;
297 -> 298 ;
299 [label="Sales <= 71.425\ngini = 0.219\nsamples = 32\nvalue = [4, 28]\nclass = Yes"] ;
298 -> 299 ;
300 [label="Commision <= 17.545\ngini = 0.375\nsamples = 16\nvalue = [4, 12]\nclass = Yes"] ;
299 -> 300 ;
301 [label="Duration <= 17.0\ngini = 0.32\nsamples = 15\nvalue = [3, 12]\nclass = Yes"] ;
300 -> 301 ;
302 [label="gini = 0.0\nsamples = 5\nvalue = [0, 5]\nclass = Yes"] ;
301 -> 302 ;
303 [label="Duration <= 24.5\ngini = 0.42\nsamples = 10\nvalue = [3, 7]\nclass = Yes"] ;
301 -> 303 ;
304 [label="Commision <= 16.63\ngini = 0.48\nsamples = 5\nvalue = [3, 2]\nclass = No"] ;
303 -> 304 ;
305 [label="Age <= 30.5\ngini = 0.375\nsamples = 4\nvalue = [3, 1]\nclass = No"] ;
304 -> 305 ;
306 [label="gini = 0.0\nsamples = 3\nvalue = [3, 0]\nclass = No"] ;
305 -> 306 ;
307 [label="gini = 0.0\nsamples = 1\nvalue = [0, 1]\nclass = Yes"] ;
305 -> 307 ;
308 [label="gini = 0.0\nsamples = 1\nvalue = [0, 1]\nclass = Yes"] ;
304 -> 308 ;
309 [label="gini = 0.0\nsamples = 5\nvalue = [0, 5]\nclass = Yes"] ;
303 -> 309 ;
310 [label="gini = 0.0\nsamples = 1\nvalue = [1, 0]\nclass = No"] ;
300 -> 310 ;
311 [label="gini = 0.0\nsamples = 16\nvalue = [0, 16]\nclass = Yes"] ;
299 -> 311 ;
312 [label="gini = 0.0\nsamples = 1\nvalue = [1, 0]\nclass = No"] ;
298 -> 312 ;
313 [label="gini = 0.0\nsamples = 2\nvalue = [2, 0]\nclass = No"] ;
297 -> 313 ;
314 [label="Sales <= 74.15\ngini = 0.5\nsamples = 18\nvalue = [9, 9]\nclass = No"] ;
296 -> 314 ;
315 [label="Age <= 44.5\ngini = 0.32\nsamples = 5\nvalue = [4, 1]\nclass = No"] ;
314 -> 315 ;
316 [label="gini = 0.0\nsamples = 3\nvalue = [3, 0]\nclass = No"] ;
315 -> 316 ;
317 [label="Sales <= 67.215\ngini = 0.5\nsamples = 2\nvalue = [1, 1]\nclass = No"] ;
315 -> 317 ;
318 [label="gini = 0.0\nsamples = 1\nvalue = [1, 0]\nclass = No"] ;
317 -> 318 ;
319 [label="gini = 0.0\nsamples = 1\nvalue = [0, 1]\nclass = Yes"] ;
317 -> 319 ;
320 [label="Age <= 37.5\ngini = 0.473\nsamples = 13\nvalue = [5, 8]\nclass = Yes"] ;
314 -> 320 ;
321 [label="Duration <= 15.0\ngini = 0.375\nsamples = 4\nvalue = [3, 1]\nclass = No"] ;
320 -> 321 ;
322 [label="gini = 0.0\nsamples = 1\nvalue = [0, 1]\nclass = Yes"] ;
321 -> 322 ;
323 [label="gini = 0.0\nsamples = 3\nvalue = [3, 0]\nclass = No"] ;
321 -> 323 ;
324 [label="Duration <= 13.5\ngini = 0.346\nsamples = 9\nvalue = [2, 7]\nclass = Yes"] ;
320 -> 324 ;
325 [label="gini = 0.0\nsamples = 1\nvalue = [1, 0]\nclass = No"] ;
324 -> 325 ;
326 [label="Age <= 46.5\ngini = 0.219\nsamples = 8\nvalue = [1, 7]\nclass = Yes"] ;
324 -> 326 ;
327 [label="gini = 0.0\nsamples = 7\nvalue = [0, 7]\nclass = Yes"] ;
326 -> 327 ;
328 [label="gini = 0.0\nsamples = 1\nvalue = [1, 0]\nclass = No"] ;
326 -> 328 ;
329 [label="gini = 0.0\nsamples = 8\nvalue = [0, 8]\nclass = Yes"] ;
295 -> 329 ;
330 [label="gini = 0.0\nsamples = 3\nvalue = [3, 0]\nclass = No"] ;
292 -> 330 ;
331 [label="Duration <= 60.5\ngini = 0.316\nsamples = 198\nvalue = [39, 159]\nclass = Yes"] ;
291 -> 331 ;
332 [label="gini = 0.0\nsamples = 15\nvalue = [0, 15]\nclass = Yes"] ;
331 -> 332 ;
333 [label="Duration <= 61.5\ngini = 0.335\nsamples = 183\nvalue = [39, 144]\nclass = Yes"] ;
331 -> 333 ;
334 [label="gini = 0.0\nsamples = 1\nvalue = [1, 0]\nclass = No"] ;
333 -> 334 ;
335 [label="Age <= 54.0\ngini = 0.33\nsamples = 182\nvalue = [38, 144]\nclass = Yes"] ;
333 -> 335 ;
336 [label="Age <= 36.5\ngini = 0.307\nsamples = 164\nvalue = [31, 133]\nclass = Yes"] ;
335 -> 336 ;
337 [label="Duration <= 146.0\ngini = 0.37\nsamples = 98\nvalue = [24, 74]\nclass = Yes"] ;
336 -> 337 ;
338 [label="Age <= 20.5\ngini = 0.18\nsamples = 20\nvalue = [2, 18]\nclass = Yes"] ;
337 -> 338 ;
339 [label="Sales <= 119.125\ngini = 0.5\nsamples = 2\nvalue = [1, 1]\nclass = No"] ;
338 -> 339 ;
340 [label="gini = 0.0\nsamples = 1\nvalue = [1, 0]\nclass = No"] ;
339 -> 340 ;
341 [label="gini = 0.0\nsamples = 1\nvalue = [0, 1]\nclass = Yes"] ;
339 -> 341 ;
342 [label="Age <= 35.5\ngini = 0.105\nsamples = 18\nvalue = [1, 17]\nclass = Yes"] ;
338 -> 342 ;
343 [label="gini = 0.0\nsamples = 16\nvalue = [0, 16]\nclass = Yes"] ;
342 -> 343 ;
344 [label="Product Name <= 2.0\ngini = 0.5\nsamples = 2\nvalue = [1, 1]\nclass = No"] ;
342 -> 344 ;
345 [label="gini = 0.0\nsamples = 1\nvalue = [0, 1]\nclass = Yes"] ;
344 -> 345 ;
346 [label="gini = 0.0\nsamples = 1\nvalue = [1, 0]\nclass = No"] ;
344 -> 346 ;
347 [label="Commision <= 26.19\ngini = 0.405\nsamples = 78\nvalue = [22, 56]\nclass = Yes"] ;
337 -> 347 ;
348 [label="gini = 0.0\nsamples = 1\nvalue = [1, 0]\nclass = No"] ;
347 -> 348 ;
349 [label="Age <= 26.5\ngini = 0.397\nsamples = 77\nvalue = [21, 56]\nclass = Yes"] ;
347 -> 349 ;
350 [label="Age <= 25.5\ngini = 0.465\nsamples = 19\nvalue = [7, 12]\nclass = Yes"] ;
349 -> 350 ;
351 [label="Commision <= 42.4\ngini = 0.278\nsamples = 12\nvalue = [2, 10]\nclass = Yes"] ;
350 -> 351 ;
352 [label="gini = 0.0\nsamples = 1\nvalue = [1, 0]\nclass = No"] ;
351 -> 352 ;
353 [label="Product Name <= 3.5\ngini = 0.165\nsamples = 11\nvalue = [1, 10]\nclass = Yes"] ;
351 -> 353 ;
354 [label="Age <= 23.5\ngini = 0.375\nsamples = 4\nvalue = [1, 3]\nclass = Yes"] ;
353 -> 354 ;
355 [label="gini = 0.0\nsamples = 3\nvalue = [0, 3]\nclass = Yes"] ;
354 -> 355 ;
356 [label="gini = 0.0\nsamples = 1\nvalue = [1, 0]\nclass = No"] ;
354 -> 356 ;
357 [label="gini = 0.0\nsamples = 7\nvalue = [0, 7]\nclass = Yes"] ;
353 -> 357 ;
358 [label="Commision <= 42.4\ngini = 0.408\nsamples = 7\nvalue = [5, 2]\nclass = No"] ;
350 -> 358 ;
359 [label="gini = 0.0\nsamples = 1\nvalue = [0, 1]\nclass = Yes"] ;
358 -> 359 ;
360 [label="Product Name <= 3.5\ngini = 0.278\nsamples = 6\nvalue = [5, 1]\nclass = No"] ;
358 -> 360 ;
361 [label="gini = 0.0\nsamples = 2\nvalue = [2, 0]\nclass = No"] ;
360 -> 361 ;
362 [label="gini = 0.375\nsamples = 4\nvalue = [3, 1]\nclass = No"] ;
360 -> 362 ;
363 [label="Product Name <= 1.5\ngini = 0.366\nsamples = 58\nvalue = [14, 44]\nclass = Yes"] ;
349 -> 363 ;
364 [label="gini = 0.0\nsamples = 1\nvalue = [1, 0]\nclass = No"] ;
363 -> 364 ;
365 [label="Age <= 31.5\ngini = 0.352\nsamples = 57\nvalue = [13, 44]\nclass = Yes"] ;
363 -> 365 ;
366 [label="Age <= 27.5\ngini = 0.251\nsamples = 34\nvalue = [5, 29]\nclass = Yes"] ;
365 -> 366 ;
367 [label="Commision <= 42.4\ngini = 0.408\nsamples = 7\nvalue = [2, 5]\nclass = Yes"] ;
366 -> 367 ;
368 [label="gini = 0.0\nsamples = 2\nvalue = [0, 2]\nclass = Yes"] ;
367 -> 368 ;
369 [label="Product Name <= 3.5\ngini = 0.48\nsamples = 5\nvalue = [2, 3]\nclass = Yes"] ;
367 -> 369 ;
370 [label="gini = 0.0\nsamples = 1\nvalue = [0, 1]\nclass = Yes"] ;
369 -> 370 ;
371 [label="gini = 0.5\nsamples = 4\nvalue = [2, 2]\nclass = No"] ;
369 -> 371 ;
372 [label="Age <= 30.5\ngini = 0.198\nsamples = 27\nvalue = [3, 24]\nclass = Yes"] ;
366 -> 372 ;
373 [label="Age <= 28.5\ngini = 0.124\nsamples = 15\nvalue = [1, 14]\nclass = Yes"] ;
372 -> 373 ;
374 [label="Commision <= 38.275\ngini = 0.278\nsamples = 6\nvalue = [1, 5]\nclass = Yes"] ;
373 -> 374 ;
375 [label="gini = 0.0\nsamples = 1\nvalue = [0, 1]\nclass = Yes"] ;
374 -> 375 ;
376 [label="Product Name <= 3.5\ngini = 0.32\nsamples = 5\nvalue = [1, 4]\nclass = Yes"] ;
374 -> 376 ;
377 [label="gini = 0.0\nsamples = 1\nvalue = [0, 1]\nclass = Yes"] ;
376 -> 377 ;
378 [label="gini = 0.375\nsamples = 4\nvalue = [1, 3]\nclass = Yes"] ;
376 -> 378 ;
379 [label="gini = 0.0\nsamples = 9\nvalue = [0, 9]\nclass = Yes"] ;
373 -> 379 ;
380 [label="Product Name <= 3.5\ngini = 0.278\nsamples = 12\nvalue = [2, 10]\nclass = Yes"] ;
372 -> 380 ;
381 [label="gini = 0.0\nsamples = 1\nvalue = [0, 1]\nclass = Yes"] ;
380 -> 381 ;
382 [label="gini = 0.298\nsamples = 11\nvalue = [2, 9]\nclass = Yes"] ;
380 -> 382 ;
383 [label="Age <= 33.5\ngini = 0.454\nsamples = 23\nvalue = [8, 15]\nclass = Yes"] ;
365 -> 383 ;
384 [label="Product Name <= 3.5\ngini = 0.496\nsamples = 11\nvalue = [6, 5]\nclass = No"] ;
383 -> 384 ;
385 [label="gini = 0.0\nsamples = 1\nvalue = [1, 0]\nclass = No"] ;
384 -> 385 ;
386 [label="Age <= 32.5\ngini = 0.5\nsamples = 10\nvalue = [5, 5]\nclass = No"] ;
384 -> 386 ;
387 [label="gini = 0.5\nsamples = 8\nvalue = [4, 4]\nclass = No"] ;
386 -> 387 ;
388 [label="gini = 0.5\nsamples = 2\nvalue = [1, 1]\nclass = No"] ;
386 -> 388 ;
389 [label="Age <= 34.5\ngini = 0.278\nsamples = 12\nvalue = [2, 10]\nclass = Yes"] ;
383 -> 389 ;
390 [label="gini = 0.0\nsamples = 3\nvalue = [0, 3]\nclass = Yes"] ;
389 -> 390 ;
391 [label="Product Name <= 3.5\ngini = 0.346\nsamples = 9\nvalue = [2, 7]\nclass = Yes"] ;
389 -> 391 ;
392 [label="gini = 0.0\nsamples = 1\nvalue = [0, 1]\nclass = Yes"] ;
391 -> 392 ;
393 [label="Age <= 35.5\ngini = 0.375\nsamples = 8\nvalue = [2, 6]\nclass = Yes"] ;
391 -> 393 ;
394 [label="gini = 0.32\nsamples = 5\nvalue = [1, 4]\nclass = Yes"] ;
393 -> 394 ;
395 [label="gini = 0.444\nsamples = 3\nvalue = [1, 2]\nclass = Yes"] ;
393 -> 395 ;
396 [label="Product Name <= 3.5\ngini = 0.19\nsamples = 66\nvalue = [7, 59]\nclass = Yes"] ;
336 -> 396 ;
397 [label="gini = 0.0\nsamples = 12\nvalue = [0, 12]\nclass = Yes"] ;
396 -> 397 ;
398 [label="Age <= 44.5\ngini = 0.226\nsamples = 54\nvalue = [7, 47]\nclass = Yes"] ;
396 -> 398 ;
399 [label="Age <= 40.5\ngini = 0.302\nsamples = 27\nvalue = [5, 22]\nclass = Yes"] ;
398 -> 399 ;
400 [label="Commision <= 42.4\ngini = 0.142\nsamples = 13\nvalue = [1, 12]\nclass = Yes"] ;
399 -> 400 ;
401 [label="gini = 0.0\nsamples = 1\nvalue = [1, 0]\nclass = No"] ;
400 -> 401 ;
402 [label="gini = 0.0\nsamples = 12\nvalue = [0, 12]\nclass = Yes"] ;
400 -> 402 ;
403 [label="Age <= 42.5\ngini = 0.408\nsamples = 14\nvalue = [4, 10]\nclass = Yes"] ;
399 -> 403 ;
404 [label="Age <= 41.5\ngini = 0.49\nsamples = 7\nvalue = [3, 4]\nclass = Yes"] ;
403 -> 404 ;
405 [label="gini = 0.48\nsamples = 5\nvalue = [2, 3]\nclass = Yes"] ;
404 -> 405 ;
406 [label="gini = 0.5\nsamples = 2\nvalue = [1, 1]\nclass = No"] ;
404 -> 406 ;
407 [label="Age <= 43.5\ngini = 0.245\nsamples = 7\nvalue = [1, 6]\nclass = Yes"] ;
403 -> 407 ;
408 [label="gini = 0.0\nsamples = 2\nvalue = [0, 2]\nclass = Yes"] ;
407 -> 408 ;
409 [label="gini = 0.32\nsamples = 5\nvalue = [1, 4]\nclass = Yes"] ;
407 -> 409 ;
410 [label="Age <= 50.5\ngini = 0.137\nsamples = 27\nvalue = [2, 25]\nclass = Yes"] ;
398 -> 410 ;
411 [label="gini = 0.0\nsamples = 15\nvalue = [0, 15]\nclass = Yes"] ;
410 -> 411 ;
412 [label="Age <= 51.5\ngini = 0.278\nsamples = 12\nvalue = [2, 10]\nclass = Yes"] ;
410 -> 412 ;
413 [label="gini = 0.375\nsamples = 4\nvalue = [1, 3]\nclass = Yes"] ;
412 -> 413 ;
414 [label="Age <= 52.5\ngini = 0.219\nsamples = 8\nvalue = [1, 7]\nclass = Yes"] ;
412 -> 414 ;
415 [label="gini = 0.0\nsamples = 4\nvalue = [0, 4]\nclass = Yes"] ;
414 -> 415 ;
416 [label="Duration <= 125.5\ngini = 0.375\nsamples = 4\nvalue = [1, 3]\nclass = Yes"] ;
414 -> 416 ;
417 [label="gini = 0.0\nsamples = 1\nvalue = [0, 1]\nclass = Yes"] ;
416 -> 417 ;
418 [label="gini = 0.444\nsamples = 3\nvalue = [1, 2]\nclass = Yes"] ;
416 -> 418 ;
419 [label="Age <= 56.5\ngini = 0.475\nsamples = 18\nvalue = [7, 11]\nclass = Yes"] ;
335 -> 419 ;
420 [label="gini = 0.0\nsamples = 2\nvalue = [2, 0]\nclass = No"] ;
419 -> 420 ;
421 [label="Commision <= 42.995\ngini = 0.43\nsamples = 16\nvalue = [5, 11]\nclass = Yes"] ;
419 -> 421 ;
422 [label="Commision <= 31.19\ngini = 0.444\nsamples = 3\nvalue = [2, 1]\nclass = No"] ;
421 -> 422 ;
423 [label="gini = 0.0\nsamples = 1\nvalue = [0, 1]\nclass = Yes"] ;
422 -> 423 ;
424 [label="gini = 0.0\nsamples = 2\nvalue = [2, 0]\nclass = No"] ;
422 -> 424 ;
425 [label="Product Name <= 3.5\ngini = 0.355\nsamples = 13\nvalue = [3, 10]\nclass = Yes"] ;
421 -> 425 ;
426 [label="Age <= 59.0\ngini = 0.48\nsamples = 5\nvalue = [2, 3]\nclass = Yes"] ;
425 -> 426 ;
427 [label="gini = 0.0\nsamples = 1\nvalue = [1, 0]\nclass = No"] ;
426 -> 427 ;
428 [label="Product Name <= 1.5\ngini = 0.375\nsamples = 4\nvalue = [1, 3]\nclass = Yes"] ;
426 -> 428 ;
429 [label="gini = 0.0\nsamples = 1\nvalue = [0, 1]\nclass = Yes"] ;
428 -> 429 ;
430 [label="gini = 0.444\nsamples = 3\nvalue = [1, 2]\nclass = Yes"] ;
428 -> 430 ;
431 [label="Age <= 59.5\ngini = 0.219\nsamples = 8\nvalue = [1, 7]\nclass = Yes"] ;
425 -> 431 ;
432 [label="gini = 0.0\nsamples = 2\nvalue = [0, 2]\nclass = Yes"] ;
431 -> 432 ;
433 [label="gini = 0.278\nsamples = 6\nvalue = [1, 5]\nclass = Yes"] ;
431 -> 433 ;
434 [label="Product Name <= 1.5\ngini = 0.311\nsamples = 1344\nvalue = [1085, 259]\nclass = No"] ;
0 -> 434 [labeldistance=2.5, labelangle=-45, headlabel="False"] ;
435 [label="Commision <= 10.57\ngini = 0.168\nsamples = 584\nvalue = [530, 54]\nclass = No"] ;
434 -> 435 ;
436 [label="Age <= 25.5\ngini = 0.135\nsamples = 510\nvalue = [473, 37]\nclass = No"] ;
435 -> 436 ;
437 [label="gini = 0.0\nsamples = 33\nvalue = [33, 0]\nclass = No"] ;
436 -> 437 ;
438 [label="Age <= 35.5\ngini = 0.143\nsamples = 477\nvalue = [440, 37]\nclass = No"] ;
436 -> 438 ;
439 [label="Duration <= 20.0\ngini = 0.234\nsamples = 74\nvalue = [64, 10]\nclass = No"] ;
438 -> 439 ;
440 [label="gini = 0.0\nsamples = 33\nvalue = [33, 0]\nclass = No"] ;
439 -> 440 ;
441 [label="Sales <= 14.5\ngini = 0.369\nsamples = 41\nvalue = [31, 10]\nclass = No"] ;
439 -> 441 ;
442 [label="Duration <= 44.0\ngini = 0.497\nsamples = 13\nvalue = [7, 6]\nclass = No"] ;
441 -> 442 ;
443 [label="Duration <= 31.0\ngini = 0.48\nsamples = 10\nvalue = [4, 6]\nclass = Yes"] ;
442 -> 443 ;
444 [label="Sales <= 11.0\ngini = 0.444\nsamples = 6\nvalue = [4, 2]\nclass = No"] ;
443 -> 444 ;
445 [label="Duration <= 27.0\ngini = 0.32\nsamples = 5\nvalue = [4, 1]\nclass = No"] ;
444 -> 445 ;
446 [label="gini = 0.0\nsamples = 3\nvalue = [3, 0]\nclass = No"] ;
445 -> 446 ;
447 [label="Age <= 29.0\ngini = 0.5\nsamples = 2\nvalue = [1, 1]\nclass = No"] ;
445 -> 447 ;
448 [label="gini = 0.0\nsamples = 1\nvalue = [1, 0]\nclass = No"] ;
447 -> 448 ;
449 [label="gini = 0.0\nsamples = 1\nvalue = [0, 1]\nclass = Yes"] ;
447 -> 449 ;
450 [label="gini = 0.0\nsamples = 1\nvalue = [0, 1]\nclass = Yes"] ;
444 -> 450 ;
451 [label="gini = 0.0\nsamples = 4\nvalue = [0, 4]\nclass = Yes"] ;
443 -> 451 ;
452 [label="gini = 0.0\nsamples = 3\nvalue = [3, 0]\nclass = No"] ;
442 -> 452 ;
453 [label="Duration <= 134.5\ngini = 0.245\nsamples = 28\nvalue = [24, 4]\nclass = No"] ;
441 -> 453 ;
454 [label="Sales <= 111.625\ngini = 0.147\nsamples = 25\nvalue = [23, 2]\nclass = No"] ;
453 -> 454 ;
455 [label="Sales <= 20.5\ngini = 0.083\nsamples = 23\nvalue = [22, 1]\nclass = No"] ;
454 -> 455 ;
456 [label="Sales <= 18.5\ngini = 0.375\nsamples = 4\nvalue = [3, 1]\nclass = No"] ;
455 -> 456 ;
457 [label="gini = 0.0\nsamples = 3\nvalue = [3, 0]\nclass = No"] ;
456 -> 457 ;
458 [label="gini = 0.0\nsamples = 1\nvalue = [0, 1]\nclass = Yes"] ;
456 -> 458 ;
459 [label="gini = 0.0\nsamples = 19\nvalue = [19, 0]\nclass = No"] ;
455 -> 459 ;
460 [label="Age <= 28.5\ngini = 0.5\nsamples = 2\nvalue = [1, 1]\nclass = No"] ;
454 -> 460 ;
461 [label="gini = 0.0\nsamples = 1\nvalue = [0, 1]\nclass = Yes"] ;
460 -> 461 ;
462 [label="gini = 0.0\nsamples = 1\nvalue = [1, 0]\nclass = No"] ;
460 -> 462 ;
463 [label="Age <= 28.5\ngini = 0.444\nsamples = 3\nvalue = [1, 2]\nclass = Yes"] ;
453 -> 463 ;
464 [label="gini = 0.0\nsamples = 1\nvalue = [1, 0]\nclass = No"] ;
463 -> 464 ;
465 [label="gini = 0.0\nsamples = 2\nvalue = [0, 2]\nclass = Yes"] ;
463 -> 465 ;
466 [label="Sales <= 60.5\ngini = 0.125\nsamples = 403\nvalue = [376, 27]\nclass = No"] ;
438 -> 466 ;
467 [label="Sales <= 56.5\ngini = 0.142\nsamples = 352\nvalue = [325, 27]\nclass = No"] ;
466 -> 467 ;
468 [label="Duration <= 74.5\ngini = 0.13\nsamples = 343\nvalue = [319, 24]\nclass = No"] ;
467 -> 468 ;
469 [label="Duration <= 72.5\ngini = 0.146\nsamples = 302\nvalue = [278, 24]\nclass = No"] ;
468 -> 469 ;
470 [label="Sales <= 25.5\ngini = 0.136\nsamples = 300\nvalue = [278, 22]\nclass = No"] ;
469 -> 470 ;
471 [label="Duration <= 26.5\ngini = 0.1\nsamples = 209\nvalue = [198, 11]\nclass = No"] ;
470 -> 471 ;
472 [label="Age <= 58.0\ngini = 0.072\nsamples = 133\nvalue = [128, 5]\nclass = No"] ;
471 -> 472 ;
473 [label="Sales <= 23.5\ngini = 0.05\nsamples = 117\nvalue = [114, 3]\nclass = No"] ;
472 -> 473 ;
474 [label="Duration <= 8.5\ngini = 0.036\nsamples = 110\nvalue = [108, 2]\nclass = No"] ;
473 -> 474 ;
475 [label="Duration <= 5.5\ngini = 0.073\nsamples = 53\nvalue = [51, 2]\nclass = No"] ;
474 -> 475 ;
476 [label="gini = 0.0\nsamples = 35\nvalue = [35, 0]\nclass = No"] ;
475 -> 476 ;
477 [label="Age <= 44.5\ngini = 0.198\nsamples = 18\nvalue = [16, 2]\nclass = No"] ;
475 -> 477 ;
478 [label="Duration <= 6.5\ngini = 0.117\nsamples = 16\nvalue = [15, 1]\nclass = No"] ;
477 -> 478 ;
479 [label="Product Name <= 0.5\ngini = 0.278\nsamples = 6\nvalue = [5, 1]\nclass = No"] ;
478 -> 479 ;
480 [label="gini = 0.0\nsamples = 3\nvalue = [3, 0]\nclass = No"] ;
479 -> 480 ;
481 [label="Sales <= 14.5\ngini = 0.444\nsamples = 3\nvalue = [2, 1]\nclass = No"] ;
479 -> 481 ;
482 [label="gini = 0.0\nsamples = 2\nvalue = [2, 0]\nclass = No"] ;
481 -> 482 ;
483 [label="gini = 0.0\nsamples = 1\nvalue = [0, 1]\nclass = Yes"] ;
481 -> 483 ;
484 [label="gini = 0.0\nsamples = 10\nvalue = [10, 0]\nclass = No"] ;
478 -> 484 ;
485 [label="Product Name <= 0.5\ngini = 0.5\nsamples = 2\nvalue = [1, 1]\nclass = No"] ;
477 -> 485 ;
486 [label="gini = 0.0\nsamples = 1\nvalue = [1, 0]\nclass = No"] ;
485 -> 486 ;
487 [label="gini = 0.0\nsamples = 1\nvalue = [0, 1]\nclass = Yes"] ;
485 -> 487 ;
488 [label="gini = 0.0\nsamples = 57\nvalue = [57, 0]\nclass = No"] ;
474 -> 488 ;
489 [label="Sales <= 24.5\ngini = 0.245\nsamples = 7\nvalue = [6, 1]\nclass = No"] ;
473 -> 489 ;
490 [label="Duration <= 10.0\ngini = 0.375\nsamples = 4\nvalue = [3, 1]\nclass = No"] ;
489 -> 490 ;
491 [label="gini = 0.0\nsamples = 3\nvalue = [3, 0]\nclass = No"] ;
490 -> 491 ;
492 [label="gini = 0.0\nsamples = 1\nvalue = [0, 1]\nclass = Yes"] ;
490 -> 492 ;
493 [label="gini = 0.0\nsamples = 3\nvalue = [3, 0]\nclass = No"] ;
489 -> 493 ;
494 [label="Age <= 59.5\ngini = 0.219\nsamples = 16\nvalue = [14, 2]\nclass = No"] ;
472 -> 494 ;
495 [label="gini = 0.0\nsamples = 1\nvalue = [0, 1]\nclass = Yes"] ;
494 -> 495 ;
496 [label="Product Name <= 0.5\ngini = 0.124\nsamples = 15\nvalue = [14, 1]\nclass = No"] ;
494 -> 496 ;
497 [label="Duration <= 10.5\ngini = 0.32\nsamples = 5\nvalue = [4, 1]\nclass = No"] ;
496 -> 497 ;
498 [label="gini = 0.0\nsamples = 3\nvalue = [3, 0]\nclass = No"] ;
497 -> 498 ;
499 [label="Sales <= 20.0\ngini = 0.5\nsamples = 2\nvalue = [1, 1]\nclass = No"] ;
497 -> 499 ;
500 [label="gini = 0.0\nsamples = 1\nvalue = [0, 1]\nclass = Yes"] ;
499 -> 500 ;
501 [label="gini = 0.0\nsamples = 1\nvalue = [1, 0]\nclass = No"] ;
499 -> 501 ;
502 [label="gini = 0.0\nsamples = 10\nvalue = [10, 0]\nclass = No"] ;
496 -> 502 ;
503 [label="Duration <= 27.5\ngini = 0.145\nsamples = 76\nvalue = [70, 6]\nclass = No"] ;
471 -> 503 ;
504 [label="Type <= 0.5\ngini = 0.5\nsamples = 4\nvalue = [2, 2]\nclass = No"] ;
503 -> 504 ;
505 [label="gini = 0.0\nsamples = 1\nvalue = [0, 1]\nclass = Yes"] ;
504 -> 505 ;
506 [label="Sales <= 13.5\ngini = 0.444\nsamples = 3\nvalue = [2, 1]\nclass = No"] ;
504 -> 506 ;
507 [label="gini = 0.0\nsamples = 1\nvalue = [0, 1]\nclass = Yes"] ;
506 -> 507 ;
508 [label="gini = 0.0\nsamples = 2\nvalue = [2, 0]\nclass = No"] ;
506 -> 508 ;
509 [label="Destination <= 1.5\ngini = 0.105\nsamples = 72\nvalue = [68, 4]\nclass = No"] ;
503 -> 509 ;
510 [label="Age <= 43.0\ngini = 0.083\nsamples = 69\nvalue = [66, 3]\nclass = No"] ;
509 -> 510 ;
511 [label="Duration <= 54.0\ngini = 0.037\nsamples = 53\nvalue = [52, 1]\nclass = No"] ;
510 -> 511 ;
512 [label="gini = 0.0\nsamples = 38\nvalue = [38, 0]\nclass = No"] ;
511 -> 512 ;
513 [label="Duration <= 55.5\ngini = 0.124\nsamples = 15\nvalue = [14, 1]\nclass = No"] ;
511 -> 513 ;
514 [label="gini = 0.0\nsamples = 1\nvalue = [0, 1]\nclass = Yes"] ;
513 -> 514 ;
515 [label="gini = 0.0\nsamples = 14\nvalue = [14, 0]\nclass = No"] ;
513 -> 515 ;
516 [label="Duration <= 42.5\ngini = 0.219\nsamples = 16\nvalue = [14, 2]\nclass = No"] ;
510 -> 516 ;
517 [label="Age <= 56.0\ngini = 0.444\nsamples = 6\nvalue = [4, 2]\nclass = No"] ;
516 -> 517 ;
518 [label="Duration <= 29.5\ngini = 0.444\nsamples = 3\nvalue = [1, 2]\nclass = Yes"] ;
517 -> 518 ;
519 [label="gini = 0.0\nsamples = 1\nvalue = [1, 0]\nclass = No"] ;
518 -> 519 ;
520 [label="gini = 0.0\nsamples = 2\nvalue = [0, 2]\nclass = Yes"] ;
518 -> 520 ;
521 [label="gini = 0.0\nsamples = 3\nvalue = [3, 0]\nclass = No"] ;
517 -> 521 ;
522 [label="gini = 0.0\nsamples = 10\nvalue = [10, 0]\nclass = No"] ;
516 -> 522 ;
523 [label="Sales <= 12.5\ngini = 0.444\nsamples = 3\nvalue = [2, 1]\nclass = No"] ;
509 -> 523 ;
524 [label="gini = 0.0\nsamples = 1\nvalue = [0, 1]\nclass = Yes"] ;
523 -> 524 ;
525 [label="gini = 0.0\nsamples = 2\nvalue = [2, 0]\nclass = No"] ;
523 -> 525 ;
526 [label="Duration <= 23.0\ngini = 0.213\nsamples = 91\nvalue = [80, 11]\nclass = No"] ;
470 -> 526 ;
527 [label="Destination <= 1.5\ngini = 0.302\nsamples = 54\nvalue = [44, 10]\nclass = No"] ;
526 -> 527 ;
528 [label="Duration <= 8.5\ngini = 0.286\nsamples = 52\nvalue = [43, 9]\nclass = No"] ;
527 -> 528 ;
529 [label="Duration <= 3.5\ngini = 0.133\nsamples = 14\nvalue = [13, 1]\nclass = No"] ;
528 -> 529 ;
530 [label="Duration <= 2.5\ngini = 0.278\nsamples = 6\nvalue = [5, 1]\nclass = No"] ;
529 -> 530 ;
531 [label="gini = 0.0\nsamples = 3\nvalue = [3, 0]\nclass = No"] ;
530 -> 531 ;
532 [label="Sales <= 31.5\ngini = 0.444\nsamples = 3\nvalue = [2, 1]\nclass = No"] ;
530 -> 532 ;
533 [label="gini = 0.0\nsamples = 2\nvalue = [2, 0]\nclass = No"] ;
532 -> 533 ;
534 [label="gini = 0.0\nsamples = 1\nvalue = [0, 1]\nclass = Yes"] ;
532 -> 534 ;
535 [label="gini = 0.0\nsamples = 8\nvalue = [8, 0]\nclass = No"] ;
529 -> 535 ;
536 [label="Duration <= 9.5\ngini = 0.332\nsamples = 38\nvalue = [30, 8]\nclass = No"] ;
528 -> 536 ;
537 [label="Commision <= 4.55\ngini = 0.5\nsamples = 4\nvalue = [2, 2]\nclass = No"] ;
536 -> 537 ;
538 [label="gini = 0.0\nsamples = 1\nvalue = [1, 0]\nclass = No"] ;
537 -> 538 ;
539 [label="Age <= 51.5\ngini = 0.444\nsamples = 3\nvalue = [1, 2]\nclass = Yes"] ;
537 -> 539 ;
540 [label="gini = 0.0\nsamples = 1\nvalue = [0, 1]\nclass = Yes"] ;
539 -> 540 ;
541 [label="Age <= 56.5\ngini = 0.5\nsamples = 2\nvalue = [1, 1]\nclass = No"] ;
539 -> 541 ;
542 [label="gini = 0.0\nsamples = 1\nvalue = [1, 0]\nclass = No"] ;
541 -> 542 ;
543 [label="gini = 0.0\nsamples = 1\nvalue = [0, 1]\nclass = Yes"] ;
541 -> 543 ;
544 [label="Age <= 36.5\ngini = 0.291\nsamples = 34\nvalue = [28, 6]\nclass = No"] ;
536 -> 544 ;
545 [label="Type <= 0.5\ngini = 0.355\nsamples = 26\nvalue = [20, 6]\nclass = No"] ;
544 -> 545 ;
546 [label="gini = 0.0\nsamples = 1\nvalue = [0, 1]\nclass = Yes"] ;
545 -> 546 ;
547 [label="Sales <= 28.5\ngini = 0.32\nsamples = 25\nvalue = [20, 5]\nclass = No"] ;
545 -> 547 ;
548 [label="gini = 0.0\nsamples = 6\nvalue = [6, 0]\nclass = No"] ;
547 -> 548 ;
549 [label="Duration <= 15.5\ngini = 0.388\nsamples = 19\nvalue = [14, 5]\nclass = No"] ;
547 -> 549 ;
550 [label="Duration <= 13.0\ngini = 0.469\nsamples = 8\nvalue = [5, 3]\nclass = No"] ;
549 -> 550 ;
551 [label="Sales <= 41.5\ngini = 0.278\nsamples = 6\nvalue = [5, 1]\nclass = No"] ;
550 -> 551 ;
552 [label="gini = 0.0\nsamples = 5\nvalue = [5, 0]\nclass = No"] ;
551 -> 552 ;
553 [label="gini = 0.0\nsamples = 1\nvalue = [0, 1]\nclass = Yes"] ;
551 -> 553 ;
554 [label="gini = 0.0\nsamples = 2\nvalue = [0, 2]\nclass = Yes"] ;
550 -> 554 ;
555 [label="Duration <= 20.5\ngini = 0.298\nsamples = 11\nvalue = [9, 2]\nclass = No"] ;
549 -> 555 ;
556 [label="gini = 0.0\nsamples = 6\nvalue = [6, 0]\nclass = No"] ;
555 -> 556 ;
557 [label="Sales <= 39.0\ngini = 0.48\nsamples = 5\nvalue = [3, 2]\nclass = No"] ;
555 -> 557 ;
558 [label="Destination <= 0.5\ngini = 0.5\nsamples = 4\nvalue = [2, 2]\nclass = No"] ;
557 -> 558 ;
559 [label="Duration <= 21.5\ngini = 0.444\nsamples = 3\nvalue = [1, 2]\nclass = Yes"] ;
558 -> 559 ;
560 [label="gini = 0.0\nsamples = 1\nvalue = [0, 1]\nclass = Yes"] ;
559 -> 560 ;
561 [label="gini = 0.5\nsamples = 2\nvalue = [1, 1]\nclass = No"] ;
559 -> 561 ;
562 [label="gini = 0.0\nsamples = 1\nvalue = [1, 0]\nclass = No"] ;
558 -> 562 ;
563 [label="gini = 0.0\nsamples = 1\nvalue = [1, 0]\nclass = No"] ;
557 -> 563 ;
564 [label="gini = 0.0\nsamples = 8\nvalue = [8, 0]\nclass = No"] ;
544 -> 564 ;
565 [label="Sales <= 34.5\ngini = 0.5\nsamples = 2\nvalue = [1, 1]\nclass = No"] ;
527 -> 565 ;
566 [label="gini = 0.0\nsamples = 1\nvalue = [1, 0]\nclass = No"] ;
565 -> 566 ;
567 [label="gini = 0.0\nsamples = 1\nvalue = [0, 1]\nclass = Yes"] ;
565 -> 567 ;
568 [label="Sales <= 26.5\ngini = 0.053\nsamples = 37\nvalue = [36, 1]\nclass = No"] ;
526 -> 568 ;
569 [label="Duration <= 52.5\ngini = 0.245\nsamples = 7\nvalue = [6, 1]\nclass = No"] ;
568 -> 569 ;
570 [label="gini = 0.0\nsamples = 5\nvalue = [5, 0]\nclass = No"] ;
569 -> 570 ;
571 [label="Duration <= 55.5\ngini = 0.5\nsamples = 2\nvalue = [1, 1]\nclass = No"] ;
569 -> 571 ;
572 [label="gini = 0.0\nsamples = 1\nvalue = [0, 1]\nclass = Yes"] ;
571 -> 572 ;
573 [label="gini = 0.0\nsamples = 1\nvalue = [1, 0]\nclass = No"] ;
571 -> 573 ;
574 [label="gini = 0.0\nsamples = 30\nvalue = [30, 0]\nclass = No"] ;
568 -> 574 ;
575 [label="gini = 0.0\nsamples = 2\nvalue = [0, 2]\nclass = Yes"] ;
469 -> 575 ;
576 [label="gini = 0.0\nsamples = 41\nvalue = [41, 0]\nclass = No"] ;
468 -> 576 ;
577 [label="Age <= 37.0\ngini = 0.444\nsamples = 9\nvalue = [6, 3]\nclass = No"] ;
467 -> 577 ;
578 [label="Duration <= 97.0\ngini = 0.375\nsamples = 8\nvalue = [6, 2]\nclass = No"] ;
577 -> 578 ;
579 [label="Duration <= 64.0\ngini = 0.48\nsamples = 5\nvalue = [3, 2]\nclass = No"] ;
578 -> 579 ;
580 [label="Duration <= 29.5\ngini = 0.375\nsamples = 4\nvalue = [3, 1]\nclass = No"] ;
579 -> 580 ;
581 [label="Sales <= 59.5\ngini = 0.5\nsamples = 2\nvalue = [1, 1]\nclass = No"] ;
580 -> 581 ;
582 [label="gini = 0.0\nsamples = 1\nvalue = [1, 0]\nclass = No"] ;
581 -> 582 ;
583 [label="gini = 0.0\nsamples = 1\nvalue = [0, 1]\nclass = Yes"] ;
581 -> 583 ;
584 [label="gini = 0.0\nsamples = 2\nvalue = [2, 0]\nclass = No"] ;
580 -> 584 ;
585 [label="gini = 0.0\nsamples = 1\nvalue = [0, 1]\nclass = Yes"] ;
579 -> 585 ;
586 [label="gini = 0.0\nsamples = 3\nvalue = [3, 0]\nclass = No"] ;
578 -> 586 ;
587 [label="gini = 0.0\nsamples = 1\nvalue = [0, 1]\nclass = Yes"] ;
577 -> 587 ;
588 [label="gini = 0.0\nsamples = 51\nvalue = [51, 0]\nclass = No"] ;
466 -> 588 ;
589 [label="Age <= 44.5\ngini = 0.354\nsamples = 74\nvalue = [57, 17]\nclass = No"] ;
435 -> 589 ;
590 [label="Duration <= 52.5\ngini = 0.236\nsamples = 44\nvalue = [38, 6]\nclass = No"] ;
589 -> 590 ;
591 [label="Duration <= 40.5\ngini = 0.064\nsamples = 30\nvalue = [29, 1]\nclass = No"] ;
590 -> 591 ;
592 [label="gini = 0.0\nsamples = 24\nvalue = [24, 0]\nclass = No"] ;
591 -> 592 ;
593 [label="Duration <= 42.5\ngini = 0.278\nsamples = 6\nvalue = [5, 1]\nclass = No"] ;
591 -> 593 ;
594 [label="Age <= 32.0\ngini = 0.5\nsamples = 2\nvalue = [1, 1]\nclass = No"] ;
593 -> 594 ;
595 [label="gini = 0.0\nsamples = 1\nvalue = [0, 1]\nclass = Yes"] ;
594 -> 595 ;
596 [label="gini = 0.0\nsamples = 1\nvalue = [1, 0]\nclass = No"] ;
594 -> 596 ;
597 [label="gini = 0.0\nsamples = 4\nvalue = [4, 0]\nclass = No"] ;
593 -> 597 ;
598 [label="Sales <= 58.5\ngini = 0.459\nsamples = 14\nvalue = [9, 5]\nclass = No"] ;
590 -> 598 ;
599 [label="Age <= 26.5\ngini = 0.375\nsamples = 12\nvalue = [9, 3]\nclass = No"] ;
598 -> 599 ;
600 [label="Commision <= 19.775\ngini = 0.48\nsamples = 5\nvalue = [2, 3]\nclass = Yes"] ;
599 -> 600 ;
601 [label="Duration <= 99.0\ngini = 0.375\nsamples = 4\nvalue = [1, 3]\nclass = Yes"] ;
600 -> 601 ;
602 [label="gini = 0.0\nsamples = 3\nvalue = [0, 3]\nclass = Yes"] ;
601 -> 602 ;
603 [label="gini = 0.0\nsamples = 1\nvalue = [1, 0]\nclass = No"] ;
601 -> 603 ;
604 [label="gini = 0.0\nsamples = 1\nvalue = [1, 0]\nclass = No"] ;
600 -> 604 ;
605 [label="gini = 0.0\nsamples = 7\nvalue = [7, 0]\nclass = No"] ;
599 -> 605 ;
606 [label="gini = 0.0\nsamples = 2\nvalue = [0, 2]\nclass = Yes"] ;
598 -> 606 ;
607 [label="Age <= 51.0\ngini = 0.464\nsamples = 30\nvalue = [19, 11]\nclass = No"] ;
589 -> 607 ;
608 [label="Age <= 49.5\ngini = 0.491\nsamples = 23\nvalue = [13, 10]\nclass = No"] ;
607 -> 608 ;
609 [label="Duration <= 30.0\ngini = 0.472\nsamples = 21\nvalue = [13, 8]\nclass = No"] ;
608 -> 609 ;
610 [label="Destination <= 0.5\ngini = 0.5\nsamples = 14\nvalue = [7, 7]\nclass = No"] ;
609 -> 610 ;
611 [label="Duration <= 7.5\ngini = 0.486\nsamples = 12\nvalue = [7, 5]\nclass = No"] ;
610 -> 611 ;
612 [label="gini = 0.0\nsamples = 1\nvalue = [0, 1]\nclass = Yes"] ;
611 -> 612 ;
613 [label="Commision <= 11.095\ngini = 0.463\nsamples = 11\nvalue = [7, 4]\nclass = No"] ;
611 -> 613 ;
614 [label="Duration <= 19.0\ngini = 0.48\nsamples = 5\nvalue = [2, 3]\nclass = Yes"] ;
613 -> 614 ;
615 [label="gini = 0.0\nsamples = 2\nvalue = [0, 2]\nclass = Yes"] ;
614 -> 615 ;
616 [label="Duration <= 24.5\ngini = 0.444\nsamples = 3\nvalue = [2, 1]\nclass = No"] ;
614 -> 616 ;
617 [label="gini = 0.0\nsamples = 2\nvalue = [2, 0]\nclass = No"] ;
616 -> 617 ;
618 [label="gini = 0.0\nsamples = 1\nvalue = [0, 1]\nclass = Yes"] ;
616 -> 618 ;
619 [label="Duration <= 8.5\ngini = 0.278\nsamples = 6\nvalue = [5, 1]\nclass = No"] ;
613 -> 619 ;
620 [label="Commision <= 13.65\ngini = 0.5\nsamples = 2\nvalue = [1, 1]\nclass = No"] ;
619 -> 620 ;
621 [label="gini = 0.0\nsamples = 1\nvalue = [1, 0]\nclass = No"] ;
620 -> 621 ;
622 [label="gini = 0.0\nsamples = 1\nvalue = [0, 1]\nclass = Yes"] ;
620 -> 622 ;
623 [label="gini = 0.0\nsamples = 4\nvalue = [4, 0]\nclass = No"] ;
619 -> 623 ;
624 [label="gini = 0.0\nsamples = 2\nvalue = [0, 2]\nclass = Yes"] ;
610 -> 624 ;
625 [label="Duration <= 68.5\ngini = 0.245\nsamples = 7\nvalue = [6, 1]\nclass = No"] ;
609 -> 625 ;
626 [label="gini = 0.0\nsamples = 5\nvalue = [5, 0]\nclass = No"] ;
625 -> 626 ;
627 [label="Age <= 46.5\ngini = 0.5\nsamples = 2\nvalue = [1, 1]\nclass = No"] ;
625 -> 627 ;
628 [label="gini = 0.0\nsamples = 1\nvalue = [1, 0]\nclass = No"] ;
627 -> 628 ;
629 [label="gini = 0.0\nsamples = 1\nvalue = [0, 1]\nclass = Yes"] ;
627 -> 629 ;
630 [label="gini = 0.0\nsamples = 2\nvalue = [0, 2]\nclass = Yes"] ;
608 -> 630 ;
631 [label="Commision <= 13.125\ngini = 0.245\nsamples = 7\nvalue = [6, 1]\nclass = No"] ;
607 -> 631 ;
632 [label="gini = 0.0\nsamples = 4\nvalue = [4, 0]\nclass = No"] ;
631 -> 632 ;
633 [label="Age <= 60.5\ngini = 0.444\nsamples = 3\nvalue = [2, 1]\nclass = No"] ;
631 -> 633 ;
634 [label="gini = 0.0\nsamples = 1\nvalue = [0, 1]\nclass = Yes"] ;
633 -> 634 ;
635 [label="gini = 0.0\nsamples = 2\nvalue = [2, 0]\nclass = No"] ;
633 -> 635 ;
636 [label="Sales <= 89.55\ngini = 0.394\nsamples = 760\nvalue = [555, 205]\nclass = No"] ;
434 -> 636 ;
637 [label="Sales <= 28.5\ngini = 0.353\nsamples = 638\nvalue = [492, 146]\nclass = No"] ;
636 -> 637 ;
638 [label="Duration <= 42.5\ngini = 0.246\nsamples = 223\nvalue = [191, 32]\nclass = No"] ;
637 -> 638 ;
639 [label="Channel <= 0.5\ngini = 0.145\nsamples = 153\nvalue = [141, 12]\nclass = No"] ;
638 -> 639 ;
640 [label="gini = 0.0\nsamples = 1\nvalue = [0, 1]\nclass = Yes"] ;
639 -> 640 ;
641 [label="Duration <= 20.5\ngini = 0.134\nsamples = 152\nvalue = [141, 11]\nclass = No"] ;
639 -> 641 ;
642 [label="Destination <= 1.5\ngini = 0.076\nsamples = 101\nvalue = [97, 4]\nclass = No"] ;
641 -> 642 ;
643 [label="Age <= 25.5\ngini = 0.06\nsamples = 97\nvalue = [94, 3]\nclass = No"] ;
642 -> 643 ;
644 [label="Sales <= 19.9\ngini = 0.32\nsamples = 5\nvalue = [4, 1]\nclass = No"] ;
643 -> 644 ;
645 [label="gini = 0.0\nsamples = 1\nvalue = [0, 1]\nclass = Yes"] ;
644 -> 645 ;
646 [label="gini = 0.0\nsamples = 4\nvalue = [4, 0]\nclass = No"] ;
644 -> 646 ;
647 [label="Duration <= 3.5\ngini = 0.043\nsamples = 92\nvalue = [90, 2]\nclass = No"] ;
643 -> 647 ;
648 [label="Age <= 38.0\ngini = 0.111\nsamples = 17\nvalue = [16, 1]\nclass = No"] ;
647 -> 648 ;
649 [label="gini = 0.0\nsamples = 12\nvalue = [12, 0]\nclass = No"] ;
648 -> 649 ;
650 [label="Age <= 44.0\ngini = 0.32\nsamples = 5\nvalue = [4, 1]\nclass = No"] ;
648 -> 650 ;
651 [label="Agency_Code <= 1.5\ngini = 0.5\nsamples = 2\nvalue = [1, 1]\nclass = No"] ;
650 -> 651 ;
652 [label="gini = 0.0\nsamples = 1\nvalue = [1, 0]\nclass = No"] ;
651 -> 652 ;
653 [label="gini = 0.0\nsamples = 1\nvalue = [0, 1]\nclass = Yes"] ;
651 -> 653 ;
654 [label="gini = 0.0\nsamples = 3\nvalue = [3, 0]\nclass = No"] ;
650 -> 654 ;
655 [label="Sales <= 20.5\ngini = 0.026\nsamples = 75\nvalue = [74, 1]\nclass = No"] ;
647 -> 655 ;
656 [label="gini = 0.0\nsamples = 55\nvalue = [55, 0]\nclass = No"] ;
655 -> 656 ;
657 [label="Sales <= 21.5\ngini = 0.095\nsamples = 20\nvalue = [19, 1]\nclass = No"] ;
655 -> 657 ;
658 [label="Duration <= 14.0\ngini = 0.444\nsamples = 3\nvalue = [2, 1]\nclass = No"] ;
657 -> 658 ;
659 [label="gini = 0.0\nsamples = 2\nvalue = [2, 0]\nclass = No"] ;
658 -> 659 ;
660 [label="gini = 0.0\nsamples = 1\nvalue = [0, 1]\nclass = Yes"] ;
658 -> 660 ;
661 [label="gini = 0.0\nsamples = 17\nvalue = [17, 0]\nclass = No"] ;
657 -> 661 ;
662 [label="Commision <= 8.91\ngini = 0.375\nsamples = 4\nvalue = [3, 1]\nclass = No"] ;
642 -> 662 ;
663 [label="gini = 0.0\nsamples = 1\nvalue = [0, 1]\nclass = Yes"] ;
662 -> 663 ;
664 [label="gini = 0.0\nsamples = 3\nvalue = [3, 0]\nclass = No"] ;
662 -> 664 ;
665 [label="Sales <= 22.5\ngini = 0.237\nsamples = 51\nvalue = [44, 7]\nclass = No"] ;
641 -> 665 ;
666 [label="Sales <= 20.5\ngini = 0.295\nsamples = 39\nvalue = [32, 7]\nclass = No"] ;
665 -> 666 ;
667 [label="Age <= 50.5\ngini = 0.185\nsamples = 29\nvalue = [26, 3]\nclass = No"] ;
666 -> 667 ;
668 [label="Age <= 32.5\ngini = 0.137\nsamples = 27\nvalue = [25, 2]\nclass = No"] ;
667 -> 668 ;
669 [label="Age <= 31.5\ngini = 0.375\nsamples = 8\nvalue = [6, 2]\nclass = No"] ;
668 -> 669 ;
670 [label="Destination <= 0.5\ngini = 0.245\nsamples = 7\nvalue = [6, 1]\nclass = No"] ;
669 -> 670 ;
671 [label="gini = 0.0\nsamples = 4\nvalue = [4, 0]\nclass = No"] ;
670 -> 671 ;
672 [label="Sales <= 9.9\ngini = 0.444\nsamples = 3\nvalue = [2, 1]\nclass = No"] ;
670 -> 672 ;
673 [label="gini = 0.0\nsamples = 1\nvalue = [1, 0]\nclass = No"] ;
672 -> 673 ;
674 [label="Duration <= 38.0\ngini = 0.5\nsamples = 2\nvalue = [1, 1]\nclass = No"] ;
672 -> 674 ;
675 [label="gini = 0.0\nsamples = 1\nvalue = [0, 1]\nclass = Yes"] ;
674 -> 675 ;
676 [label="gini = 0.0\nsamples = 1\nvalue = [1, 0]\nclass = No"] ;
674 -> 676 ;
677 [label="gini = 0.0\nsamples = 1\nvalue = [0, 1]\nclass = Yes"] ;
669 -> 677 ;
678 [label="gini = 0.0\nsamples = 19\nvalue = [19, 0]\nclass = No"] ;
668 -> 678 ;
679 [label="Agency_Code <= 1.5\ngini = 0.5\nsamples = 2\nvalue = [1, 1]\nclass = No"] ;
667 -> 679 ;
680 [label="gini = 0.0\nsamples = 1\nvalue = [1, 0]\nclass = No"] ;
679 -> 680 ;
681 [label="gini = 0.0\nsamples = 1\nvalue = [0, 1]\nclass = Yes"] ;
679 -> 681 ;
682 [label="Duration <= 29.5\ngini = 0.48\nsamples = 10\nvalue = [6, 4]\nclass = No"] ;
666 -> 682 ;
683 [label="Sales <= 21.5\ngini = 0.375\nsamples = 4\nvalue = [1, 3]\nclass = Yes"] ;
682 -> 683 ;
684 [label="gini = 0.0\nsamples = 2\nvalue = [0, 2]\nclass = Yes"] ;
683 -> 684 ;
685 [label="Duration <= 26.0\ngini = 0.5\nsamples = 2\nvalue = [1, 1]\nclass = No"] ;
683 -> 685 ;
686 [label="gini = 0.0\nsamples = 1\nvalue = [1, 0]\nclass = No"] ;
685 -> 686 ;
687 [label="gini = 0.0\nsamples = 1\nvalue = [0, 1]\nclass = Yes"] ;
685 -> 687 ;
688 [label="Duration <= 33.5\ngini = 0.278\nsamples = 6\nvalue = [5, 1]\nclass = No"] ;
682 -> 688 ;
689 [label="Age <= 31.0\ngini = 0.444\nsamples = 3\nvalue = [2, 1]\nclass = No"] ;
688 -> 689 ;
690 [label="gini = 0.0\nsamples = 1\nvalue = [1, 0]\nclass = No"] ;
689 -> 690 ;
691 [label="gini = 0.5\nsamples = 2\nvalue = [1, 1]\nclass = No"] ;
689 -> 691 ;
692 [label="gini = 0.0\nsamples = 3\nvalue = [3, 0]\nclass = No"] ;
688 -> 692 ;
693 [label="gini = 0.0\nsamples = 12\nvalue = [12, 0]\nclass = No"] ;
665 -> 693 ;
694 [label="Sales <= 19.835\ngini = 0.408\nsamples = 70\nvalue = [50, 20]\nclass = No"] ;
638 -> 694 ;
695 [label="gini = 0.0\nsamples = 11\nvalue = [11, 0]\nclass = No"] ;
694 -> 695 ;
696 [label="Age <= 42.5\ngini = 0.448\nsamples = 59\nvalue = [39, 20]\nclass = No"] ;
694 -> 696 ;
697 [label="Duration <= 48.5\ngini = 0.473\nsamples = 52\nvalue = [32, 20]\nclass = No"] ;
696 -> 697 ;
698 [label="Duration <= 45.0\ngini = 0.32\nsamples = 5\nvalue = [1, 4]\nclass = Yes"] ;
697 -> 698 ;
699 [label="gini = 0.5\nsamples = 2\nvalue = [1, 1]\nclass = No"] ;
698 -> 699 ;
700 [label="gini = 0.0\nsamples = 3\nvalue = [0, 3]\nclass = Yes"] ;
698 -> 700 ;
701 [label="Duration <= 92.5\ngini = 0.449\nsamples = 47\nvalue = [31, 16]\nclass = No"] ;
697 -> 701 ;
702 [label="Age <= 37.0\ngini = 0.34\nsamples = 23\nvalue = [18, 5]\nclass = No"] ;
701 -> 702 ;
703 [label="Duration <= 67.5\ngini = 0.298\nsamples = 22\nvalue = [18, 4]\nclass = No"] ;
702 -> 703 ;
704 [label="Duration <= 61.0\ngini = 0.408\nsamples = 14\nvalue = [10, 4]\nclass = No"] ;
703 -> 704 ;
705 [label="Duration <= 53.5\ngini = 0.278\nsamples = 12\nvalue = [10, 2]\nclass = No"] ;
704 -> 705 ;
706 [label="Duration <= 52.5\ngini = 0.444\nsamples = 6\nvalue = [4, 2]\nclass = No"] ;
705 -> 706 ;
707 [label="Duration <= 50.5\ngini = 0.32\nsamples = 5\nvalue = [4, 1]\nclass = No"] ;
706 -> 707 ;
708 [label="gini = 0.0\nsamples = 2\nvalue = [2, 0]\nclass = No"] ;
707 -> 708 ;
709 [label="Duration <= 51.5\ngini = 0.444\nsamples = 3\nvalue = [2, 1]\nclass = No"] ;
707 -> 709 ;
710 [label="Sales <= 21.5\ngini = 0.5\nsamples = 2\nvalue = [1, 1]\nclass = No"] ;
709 -> 710 ;
711 [label="gini = 0.0\nsamples = 1\nvalue = [0, 1]\nclass = Yes"] ;
710 -> 711 ;
712 [label="gini = 0.0\nsamples = 1\nvalue = [1, 0]\nclass = No"] ;
710 -> 712 ;
713 [label="gini = 0.0\nsamples = 1\nvalue = [1, 0]\nclass = No"] ;
709 -> 713 ;
714 [label="gini = 0.0\nsamples = 1\nvalue = [0, 1]\nclass = Yes"] ;
706 -> 714 ;
715 [label="gini = 0.0\nsamples = 6\nvalue = [6, 0]\nclass = No"] ;
705 -> 715 ;
716 [label="gini = 0.0\nsamples = 2\nvalue = [0, 2]\nclass = Yes"] ;
704 -> 716 ;
717 [label="gini = 0.0\nsamples = 8\nvalue = [8, 0]\nclass = No"] ;
703 -> 717 ;
718 [label="gini = 0.0\nsamples = 1\nvalue = [0, 1]\nclass = Yes"] ;
702 -> 718 ;
719 [label="Sales <= 24.5\ngini = 0.497\nsamples = 24\nvalue = [13, 11]\nclass = No"] ;
701 -> 719 ;
720 [label="Duration <= 95.5\ngini = 0.465\nsamples = 19\nvalue = [12, 7]\nclass = No"] ;
719 -> 720 ;
721 [label="Duration <= 94.0\ngini = 0.375\nsamples = 4\nvalue = [1, 3]\nclass = Yes"] ;
720 -> 721 ;
722 [label="gini = 0.5\nsamples = 2\nvalue = [1, 1]\nclass = No"] ;
721 -> 722 ;
723 [label="gini = 0.0\nsamples = 2\nvalue = [0, 2]\nclass = Yes"] ;
721 -> 723 ;
724 [label="Destination <= 1.5\ngini = 0.391\nsamples = 15\nvalue = [11, 4]\nclass = No"] ;
720 -> 724 ;
725 [label="Sales <= 19.935\ngini = 0.337\nsamples = 14\nvalue = [11, 3]\nclass = No"] ;
724 -> 725 ;
726 [label="gini = 0.0\nsamples = 1\nvalue = [0, 1]\nclass = Yes"] ;
725 -> 726 ;
727 [label="Duration <= 107.0\ngini = 0.26\nsamples = 13\nvalue = [11, 2]\nclass = No"] ;
725 -> 727 ;
728 [label="gini = 0.0\nsamples = 4\nvalue = [4, 0]\nclass = No"] ;
727 -> 728 ;
729 [label="Duration <= 112.0\ngini = 0.346\nsamples = 9\nvalue = [7, 2]\nclass = No"] ;
727 -> 729 ;
730 [label="gini = 0.0\nsamples = 1\nvalue = [0, 1]\nclass = Yes"] ;
729 -> 730 ;
731 [label="Duration <= 138.5\ngini = 0.219\nsamples = 8\nvalue = [7, 1]\nclass = No"] ;
729 -> 731 ;
732 [label="gini = 0.0\nsamples = 4\nvalue = [4, 0]\nclass = No"] ;
731 -> 732 ;
733 [label="Sales <= 21.5\ngini = 0.375\nsamples = 4\nvalue = [3, 1]\nclass = No"] ;
731 -> 733 ;
734 [label="Age <= 33.5\ngini = 0.444\nsamples = 3\nvalue = [2, 1]\nclass = No"] ;
733 -> 734 ;
735 [label="gini = 0.0\nsamples = 1\nvalue = [1, 0]\nclass = No"] ;
734 -> 735 ;
736 [label="gini = 0.5\nsamples = 2\nvalue = [1, 1]\nclass = No"] ;
734 -> 736 ;
737 [label="gini = 0.0\nsamples = 1\nvalue = [1, 0]\nclass = No"] ;
733 -> 737 ;
738 [label="gini = 0.0\nsamples = 1\nvalue = [0, 1]\nclass = Yes"] ;
724 -> 738 ;
739 [label="Duration <= 105.0\ngini = 0.32\nsamples = 5\nvalue = [1, 4]\nclass = Yes"] ;
719 -> 739 ;
740 [label="gini = 0.0\nsamples = 1\nvalue = [1, 0]\nclass = No"] ;
739 -> 740 ;
741 [label="gini = 0.0\nsamples = 4\nvalue = [0, 4]\nclass = Yes"] ;
739 -> 741 ;
742 [label="gini = 0.0\nsamples = 7\nvalue = [7, 0]\nclass = No"] ;
696 -> 742 ;
743 [label="Age <= 26.5\ngini = 0.398\nsamples = 415\nvalue = [301, 114]\nclass = No"] ;
637 -> 743 ;
744 [label="Duration <= 21.0\ngini = 0.48\nsamples = 20\nvalue = [8, 12]\nclass = Yes"] ;
743 -> 744 ;
745 [label="Sales <= 29.35\ngini = 0.198\nsamples = 9\nvalue = [1, 8]\nclass = Yes"] ;
744 -> 745 ;
746 [label="Age <= 25.5\ngini = 0.444\nsamples = 3\nvalue = [1, 2]\nclass = Yes"] ;
745 -> 746 ;
747 [label="gini = 0.0\nsamples = 2\nvalue = [0, 2]\nclass = Yes"] ;
746 -> 747 ;
748 [label="gini = 0.0\nsamples = 1\nvalue = [1, 0]\nclass = No"] ;
746 -> 748 ;
749 [label="gini = 0.0\nsamples = 6\nvalue = [0, 6]\nclass = Yes"] ;
745 -> 749 ;
750 [label="Destination <= 1.5\ngini = 0.463\nsamples = 11\nvalue = [7, 4]\nclass = No"] ;
744 -> 750 ;
751 [label="Age <= 21.5\ngini = 0.346\nsamples = 9\nvalue = [7, 2]\nclass = No"] ;
750 -> 751 ;
752 [label="Duration <= 26.5\ngini = 0.444\nsamples = 3\nvalue = [1, 2]\nclass = Yes"] ;
751 -> 752 ;
753 [label="gini = 0.0\nsamples = 1\nvalue = [1, 0]\nclass = No"] ;
752 -> 753 ;
754 [label="gini = 0.0\nsamples = 2\nvalue = [0, 2]\nclass = Yes"] ;
752 -> 754 ;
755 [label="gini = 0.0\nsamples = 6\nvalue = [6, 0]\nclass = No"] ;
751 -> 755 ;
756 [label="gini = 0.0\nsamples = 2\nvalue = [0, 2]\nclass = Yes"] ;
750 -> 756 ;
757 [label="Age <= 38.5\ngini = 0.383\nsamples = 395\nvalue = [293, 102]\nclass = No"] ;
743 -> 757 ;
758 [label="Duration <= 42.5\ngini = 0.415\nsamples = 283\nvalue = [200, 83]\nclass = No"] ;
757 -> 758 ;
759 [label="Product Name <= 2.5\ngini = 0.376\nsamples = 191\nvalue = [143, 48]\nclass = No"] ;
758 -> 759 ;
760 [label="Age <= 28.5\ngini = 0.363\nsamples = 185\nvalue = [141, 44]\nclass = No"] ;
759 -> 760 ;
761 [label="Commision <= 20.79\ngini = 0.49\nsamples = 7\nvalue = [3, 4]\nclass = Yes"] ;
760 -> 761 ;
762 [label="Duration <= 14.5\ngini = 0.32\nsamples = 5\nvalue = [1, 4]\nclass = Yes"] ;
761 -> 762 ;
763 [label="Age <= 27.5\ngini = 0.5\nsamples = 2\nvalue = [1, 1]\nclass = No"] ;
762 -> 763 ;
764 [label="gini = 0.0\nsamples = 1\nvalue = [1, 0]\nclass = No"] ;
763 -> 764 ;
765 [label="gini = 0.0\nsamples = 1\nvalue = [0, 1]\nclass = Yes"] ;
763 -> 765 ;
766 [label="gini = 0.0\nsamples = 3\nvalue = [0, 3]\nclass = Yes"] ;
762 -> 766 ;
767 [label="gini = 0.0\nsamples = 2\nvalue = [2, 0]\nclass = No"] ;
761 -> 767 ;
768 [label="Sales <= 79.1\ngini = 0.348\nsamples = 178\nvalue = [138, 40]\nclass = No"] ;
760 -> 768 ;
769 [label="Sales <= 65.5\ngini = 0.366\nsamples = 166\nvalue = [126, 40]\nclass = No"] ;
768 -> 769 ;
770 [label="Commision <= 13.695\ngini = 0.34\nsamples = 143\nvalue = [112, 31]\nclass = No"] ;
769 -> 770 ;
771 [label="Duration <= 41.0\ngini = 0.308\nsamples = 105\nvalue = [85, 20]\nclass = No"] ;
770 -> 771 ;
772 [label="Age <= 35.5\ngini = 0.299\nsamples = 104\nvalue = [85, 19]\nclass = No"] ;
771 -> 772 ;
773 [label="gini = 0.0\nsamples = 12\nvalue = [12, 0]\nclass = No"] ;
772 -> 773 ;
774 [label="Duration <= 11.5\ngini = 0.328\nsamples = 92\nvalue = [73, 19]\nclass = No"] ;
772 -> 774 ;
775 [label="Sales <= 44.5\ngini = 0.198\nsamples = 36\nvalue = [32, 4]\nclass = No"] ;
774 -> 775 ;
776 [label="Duration <= 7.5\ngini = 0.08\nsamples = 24\nvalue = [23, 1]\nclass = No"] ;
775 -> 776 ;
777 [label="gini = 0.0\nsamples = 13\nvalue = [13, 0]\nclass = No"] ;
776 -> 777 ;
778 [label="Duration <= 8.5\ngini = 0.165\nsamples = 11\nvalue = [10, 1]\nclass = No"] ;
776 -> 778 ;
779 [label="Sales <= 39.0\ngini = 0.5\nsamples = 2\nvalue = [1, 1]\nclass = No"] ;
778 -> 779 ;
780 [label="gini = 0.0\nsamples = 1\nvalue = [0, 1]\nclass = Yes"] ;
779 -> 780 ;
781 [label="gini = 0.0\nsamples = 1\nvalue = [1, 0]\nclass = No"] ;
779 -> 781 ;
782 [label="gini = 0.0\nsamples = 9\nvalue = [9, 0]\nclass = No"] ;
778 -> 782 ;
783 [label="Duration <= 7.5\ngini = 0.375\nsamples = 12\nvalue = [9, 3]\nclass = No"] ;
775 -> 783 ;
784 [label="Duration <= 4.0\ngini = 0.5\nsamples = 6\nvalue = [3, 3]\nclass = No"] ;
783 -> 784 ;
785 [label="gini = 0.0\nsamples = 2\nvalue = [2, 0]\nclass = No"] ;
784 -> 785 ;
786 [label="Duration <= 6.0\ngini = 0.375\nsamples = 4\nvalue = [1, 3]\nclass = Yes"] ;
784 -> 786 ;
787 [label="gini = 0.0\nsamples = 2\nvalue = [0, 2]\nclass = Yes"] ;
786 -> 787 ;
788 [label="Sales <= 54.5\ngini = 0.5\nsamples = 2\nvalue = [1, 1]\nclass = No"] ;
786 -> 788 ;
789 [label="gini = 0.0\nsamples = 1\nvalue = [1, 0]\nclass = No"] ;
788 -> 789 ;
790 [label="gini = 0.0\nsamples = 1\nvalue = [0, 1]\nclass = Yes"] ;
788 -> 790 ;
791 [label="gini = 0.0\nsamples = 6\nvalue = [6, 0]\nclass = No"] ;
783 -> 791 ;
792 [label="Sales <= 50.5\ngini = 0.392\nsamples = 56\nvalue = [41, 15]\nclass = No"] ;
774 -> 792 ;
793 [label="Sales <= 49.5\ngini = 0.434\nsamples = 44\nvalue = [30, 14]\nclass = No"] ;
792 -> 793 ;
794 [label="Destination <= 0.5\ngini = 0.422\nsamples = 43\nvalue = [30, 13]\nclass = No"] ;
793 -> 794 ;
795 [label="Duration <= 31.5\ngini = 0.408\nsamples = 42\nvalue = [30, 12]\nclass = No"] ;
794 -> 795 ;
796 [label="Duration <= 30.5\ngini = 0.444\nsamples = 36\nvalue = [24, 12]\nclass = No"] ;
795 -> 796 ;
797 [label="Duration <= 13.5\ngini = 0.431\nsamples = 35\nvalue = [24, 11]\nclass = No"] ;
796 -> 797 ;
798 [label="Sales <= 30.5\ngini = 0.5\nsamples = 8\nvalue = [4, 4]\nclass = No"] ;
797 -> 798 ;
799 [label="gini = 0.0\nsamples = 1\nvalue = [0, 1]\nclass = Yes"] ;
798 -> 799 ;
800 [label="Sales <= 38.5\ngini = 0.49\nsamples = 7\nvalue = [4, 3]\nclass = No"] ;
798 -> 800 ;
801 [label="Sales <= 32.5\ngini = 0.375\nsamples = 4\nvalue = [3, 1]\nclass = No"] ;
800 -> 801 ;
802 [label="gini = 0.5\nsamples = 2\nvalue = [1, 1]\nclass = No"] ;
801 -> 802 ;
803 [label="gini = 0.0\nsamples = 2\nvalue = [2, 0]\nclass = No"] ;
801 -> 803 ;
804 [label="Duration <= 12.5\ngini = 0.444\nsamples = 3\nvalue = [1, 2]\nclass = Yes"] ;
800 -> 804 ;
805 [label="Sales <= 44.5\ngini = 0.5\nsamples = 2\nvalue = [1, 1]\nclass = No"] ;
804 -> 805 ;
806 [label="gini = 0.0\nsamples = 1\nvalue = [0, 1]\nclass = Yes"] ;
805 -> 806 ;
807 [label="gini = 0.0\nsamples = 1\nvalue = [1, 0]\nclass = No"] ;
805 -> 807 ;
808 [label="gini = 0.0\nsamples = 1\nvalue = [0, 1]\nclass = Yes"] ;
804 -> 808 ;
809 [label="Sales <= 38.5\ngini = 0.384\nsamples = 27\nvalue = [20, 7]\nclass = No"] ;
797 -> 809 ;
810 [label="Sales <= 32.5\ngini = 0.459\nsamples = 14\nvalue = [9, 5]\nclass = No"] ;
809 -> 810 ;
811 [label="Duration <= 14.5\ngini = 0.219\nsamples = 8\nvalue = [7, 1]\nclass = No"] ;
810 -> 811 ;
812 [label="Sales <= 30.5\ngini = 0.5\nsamples = 2\nvalue = [1, 1]\nclass = No"] ;
811 -> 812 ;
813 [label="gini = 0.0\nsamples = 1\nvalue = [0, 1]\nclass = Yes"] ;
812 -> 813 ;
814 [label="gini = 0.0\nsamples = 1\nvalue = [1, 0]\nclass = No"] ;
812 -> 814 ;
815 [label="gini = 0.0\nsamples = 6\nvalue = [6, 0]\nclass = No"] ;
811 -> 815 ;
816 [label="Duration <= 25.5\ngini = 0.444\nsamples = 6\nvalue = [2, 4]\nclass = Yes"] ;
810 -> 816 ;
817 [label="Duration <= 19.5\ngini = 0.444\nsamples = 3\nvalue = [2, 1]\nclass = No"] ;
816 -> 817 ;
818 [label="gini = 0.0\nsamples = 1\nvalue = [0, 1]\nclass = Yes"] ;
817 -> 818 ;
819 [label="gini = 0.0\nsamples = 2\nvalue = [2, 0]\nclass = No"] ;
817 -> 819 ;
820 [label="gini = 0.0\nsamples = 3\nvalue = [0, 3]\nclass = Yes"] ;
816 -> 820 ;
821 [label="Sales <= 43.5\ngini = 0.26\nsamples = 13\nvalue = [11, 2]\nclass = No"] ;
809 -> 821 ;
822 [label="gini = 0.0\nsamples = 8\nvalue = [8, 0]\nclass = No"] ;
821 -> 822 ;
823 [label="Duration <= 20.5\ngini = 0.48\nsamples = 5\nvalue = [3, 2]\nclass = No"] ;
821 -> 823 ;
824 [label="gini = 0.0\nsamples = 2\nvalue = [0, 2]\nclass = Yes"] ;
823 -> 824 ;
825 [label="gini = 0.0\nsamples = 3\nvalue = [3, 0]\nclass = No"] ;
823 -> 825 ;
826 [label="gini = 0.0\nsamples = 1\nvalue = [0, 1]\nclass = Yes"] ;
796 -> 826 ;
827 [label="gini = 0.0\nsamples = 6\nvalue = [6, 0]\nclass = No"] ;
795 -> 827 ;
828 [label="gini = 0.0\nsamples = 1\nvalue = [0, 1]\nclass = Yes"] ;
794 -> 828 ;
829 [label="gini = 0.0\nsamples = 1\nvalue = [0, 1]\nclass = Yes"] ;
793 -> 829 ;
830 [label="Duration <= 24.5\ngini = 0.153\nsamples = 12\nvalue = [11, 1]\nclass = No"] ;
792 -> 830 ;
831 [label="gini = 0.0\nsamples = 6\nvalue = [6, 0]\nclass = No"] ;
830 -> 831 ;
832 [label="Duration <= 26.5\ngini = 0.278\nsamples = 6\nvalue = [5, 1]\nclass = No"] ;
830 -> 832 ;
833 [label="gini = 0.0\nsamples = 1\nvalue = [0, 1]\nclass = Yes"] ;
832 -> 833 ;
834 [label="gini = 0.0\nsamples = 5\nvalue = [5, 0]\nclass = No"] ;
832 -> 834 ;
835 [label="gini = 0.0\nsamples = 1\nvalue = [0, 1]\nclass = Yes"] ;
771 -> 835 ;
836 [label="Duration <= 24.5\ngini = 0.411\nsamples = 38\nvalue = [27, 11]\nclass = No"] ;
770 -> 836 ;
837 [label="Duration <= 23.0\ngini = 0.458\nsamples = 31\nvalue = [20, 11]\nclass = No"] ;
836 -> 837 ;
838 [label="Age <= 29.5\ngini = 0.428\nsamples = 29\nvalue = [20, 9]\nclass = No"] ;
837 -> 838 ;
839 [label="gini = 0.0\nsamples = 1\nvalue = [0, 1]\nclass = Yes"] ;
838 -> 839 ;
840 [label="Duration <= 10.5\ngini = 0.408\nsamples = 28\nvalue = [20, 8]\nclass = No"] ;
838 -> 840 ;
841 [label="Duration <= 3.5\ngini = 0.49\nsamples = 14\nvalue = [8, 6]\nclass = No"] ;
840 -> 841 ;
842 [label="gini = 0.0\nsamples = 1\nvalue = [0, 1]\nclass = Yes"] ;
841 -> 842 ;
843 [label="Destination <= 1.5\ngini = 0.473\nsamples = 13\nvalue = [8, 5]\nclass = No"] ;
841 -> 843 ;
844 [label="Duration <= 5.5\ngini = 0.5\nsamples = 10\nvalue = [5, 5]\nclass = No"] ;
843 -> 844 ;
845 [label="gini = 0.0\nsamples = 2\nvalue = [2, 0]\nclass = No"] ;
844 -> 845 ;
846 [label="Age <= 34.5\ngini = 0.469\nsamples = 8\nvalue = [3, 5]\nclass = Yes"] ;
844 -> 846 ;
847 [label="Duration <= 9.5\ngini = 0.32\nsamples = 5\nvalue = [1, 4]\nclass = Yes"] ;
846 -> 847 ;
848 [label="gini = 0.0\nsamples = 3\nvalue = [0, 3]\nclass = Yes"] ;
847 -> 848 ;
849 [label="Sales <= 44.55\ngini = 0.5\nsamples = 2\nvalue = [1, 1]\nclass = No"] ;
847 -> 849 ;
850 [label="gini = 0.0\nsamples = 1\nvalue = [1, 0]\nclass = No"] ;
849 -> 850 ;
851 [label="gini = 0.0\nsamples = 1\nvalue = [0, 1]\nclass = Yes"] ;
849 -> 851 ;
852 [label="Duration <= 7.0\ngini = 0.444\nsamples = 3\nvalue = [2, 1]\nclass = No"] ;
846 -> 852 ;
853 [label="gini = 0.0\nsamples = 1\nvalue = [1, 0]\nclass = No"] ;
852 -> 853 ;
854 [label="Sales <= 44.55\ngini = 0.5\nsamples = 2\nvalue = [1, 1]\nclass = No"] ;
852 -> 854 ;
855 [label="gini = 0.0\nsamples = 1\nvalue = [1, 0]\nclass = No"] ;
854 -> 855 ;
856 [label="gini = 0.0\nsamples = 1\nvalue = [0, 1]\nclass = Yes"] ;
854 -> 856 ;
857 [label="gini = 0.0\nsamples = 3\nvalue = [3, 0]\nclass = No"] ;
843 -> 857 ;
858 [label="Destination <= 1.5\ngini = 0.245\nsamples = 14\nvalue = [12, 2]\nclass = No"] ;
840 -> 858 ;
859 [label="Age <= 36.5\ngini = 0.142\nsamples = 13\nvalue = [12, 1]\nclass = No"] ;
858 -> 859 ;
860 [label="gini = 0.0\nsamples = 10\nvalue = [10, 0]\nclass = No"] ;
859 -> 860 ;
861 [label="Duration <= 17.5\ngini = 0.444\nsamples = 3\nvalue = [2, 1]\nclass = No"] ;
859 -> 861 ;
862 [label="gini = 0.0\nsamples = 1\nvalue = [0, 1]\nclass = Yes"] ;
861 -> 862 ;
863 [label="gini = 0.0\nsamples = 2\nvalue = [2, 0]\nclass = No"] ;
861 -> 863 ;
864 [label="gini = 0.0\nsamples = 1\nvalue = [0, 1]\nclass = Yes"] ;
858 -> 864 ;
865 [label="gini = 0.0\nsamples = 2\nvalue = [0, 2]\nclass = Yes"] ;
837 -> 865 ;
866 [label="gini = 0.0\nsamples = 7\nvalue = [7, 0]\nclass = No"] ;
836 -> 866 ;
867 [label="Destination <= 1.5\ngini = 0.476\nsamples = 23\nvalue = [14, 9]\nclass = No"] ;
769 -> 867 ;
868 [label="Age <= 31.5\ngini = 0.499\nsamples = 19\nvalue = [10, 9]\nclass = No"] ;
867 -> 868 ;
869 [label="gini = 0.0\nsamples = 3\nvalue = [3, 0]\nclass = No"] ;
868 -> 869 ;
870 [label="Duration <= 39.5\ngini = 0.492\nsamples = 16\nvalue = [7, 9]\nclass = Yes"] ;
868 -> 870 ;
871 [label="Duration <= 19.5\ngini = 0.459\nsamples = 14\nvalue = [5, 9]\nclass = Yes"] ;
870 -> 871 ;
872 [label="Duration <= 18.5\ngini = 0.5\nsamples = 10\nvalue = [5, 5]\nclass = No"] ;
871 -> 872 ;
873 [label="Duration <= 5.5\ngini = 0.408\nsamples = 7\nvalue = [2, 5]\nclass = Yes"] ;
872 -> 873 ;
874 [label="gini = 0.0\nsamples = 1\nvalue = [1, 0]\nclass = No"] ;
873 -> 874 ;
875 [label="Duration <= 10.0\ngini = 0.278\nsamples = 6\nvalue = [1, 5]\nclass = Yes"] ;
873 -> 875 ;
876 [label="Commision <= 20.79\ngini = 0.444\nsamples = 3\nvalue = [1, 2]\nclass = Yes"] ;
875 -> 876 ;
877 [label="gini = 0.0\nsamples = 1\nvalue = [0, 1]\nclass = Yes"] ;
876 -> 877 ;
878 [label="Age <= 35.0\ngini = 0.5\nsamples = 2\nvalue = [1, 1]\nclass = No"] ;
876 -> 878 ;
879 [label="gini = 0.0\nsamples = 1\nvalue = [0, 1]\nclass = Yes"] ;
878 -> 879 ;
880 [label="gini = 0.0\nsamples = 1\nvalue = [1, 0]\nclass = No"] ;
878 -> 880 ;
881 [label="gini = 0.0\nsamples = 3\nvalue = [0, 3]\nclass = Yes"] ;
875 -> 881 ;
882 [label="gini = 0.0\nsamples = 3\nvalue = [3, 0]\nclass = No"] ;
872 -> 882 ;
883 [label="gini = 0.0\nsamples = 4\nvalue = [0, 4]\nclass = Yes"] ;
871 -> 883 ;
884 [label="gini = 0.0\nsamples = 2\nvalue = [2, 0]\nclass = No"] ;
870 -> 884 ;
885 [label="gini = 0.0\nsamples = 4\nvalue = [4, 0]\nclass = No"] ;
867 -> 885 ;
886 [label="gini = 0.0\nsamples = 12\nvalue = [12, 0]\nclass = No"] ;
768 -> 886 ;
887 [label="Commision <= 8.885\ngini = 0.444\nsamples = 6\nvalue = [2, 4]\nclass = Yes"] ;
759 -> 887 ;
888 [label="gini = 0.0\nsamples = 1\nvalue = [1, 0]\nclass = No"] ;
887 -> 888 ;
889 [label="Duration <= 11.0\ngini = 0.32\nsamples = 5\nvalue = [1, 4]\nclass = Yes"] ;
887 -> 889 ;
890 [label="gini = 0.0\nsamples = 3\nvalue = [0, 3]\nclass = Yes"] ;
889 -> 890 ;
891 [label="Product Name <= 3.5\ngini = 0.5\nsamples = 2\nvalue = [1, 1]\nclass = No"] ;
889 -> 891 ;
892 [label="gini = 0.0\nsamples = 1\nvalue = [1, 0]\nclass = No"] ;
891 -> 892 ;
893 [label="gini = 0.0\nsamples = 1\nvalue = [0, 1]\nclass = Yes"] ;
891 -> 893 ;
894 [label="Duration <= 131.5\ngini = 0.471\nsamples = 92\nvalue = [57, 35]\nclass = No"] ;
758 -> 894 ;
895 [label="Destination <= 0.5\ngini = 0.495\nsamples = 69\nvalue = [38, 31]\nclass = No"] ;
894 -> 895 ;
896 [label="Duration <= 65.5\ngini = 0.449\nsamples = 44\nvalue = [29, 15]\nclass = No"] ;
895 -> 896 ;
897 [label="Age <= 37.0\ngini = 0.291\nsamples = 17\nvalue = [14, 3]\nclass = No"] ;
896 -> 897 ;
898 [label="Sales <= 29.35\ngini = 0.219\nsamples = 16\nvalue = [14, 2]\nclass = No"] ;
897 -> 898 ;
899 [label="gini = 0.0\nsamples = 1\nvalue = [0, 1]\nclass = Yes"] ;
898 -> 899 ;
900 [label="Sales <= 36.0\ngini = 0.124\nsamples = 15\nvalue = [14, 1]\nclass = No"] ;
898 -> 900 ;
901 [label="Duration <= 49.5\ngini = 0.278\nsamples = 6\nvalue = [5, 1]\nclass = No"] ;
900 -> 901 ;
902 [label="gini = 0.5\nsamples = 2\nvalue = [1, 1]\nclass = No"] ;
901 -> 902 ;
903 [label="gini = 0.0\nsamples = 4\nvalue = [4, 0]\nclass = No"] ;
901 -> 903 ;
904 [label="gini = 0.0\nsamples = 9\nvalue = [9, 0]\nclass = No"] ;
900 -> 904 ;
905 [label="gini = 0.0\nsamples = 1\nvalue = [0, 1]\nclass = Yes"] ;
897 -> 905 ;
906 [label="Duration <= 66.5\ngini = 0.494\nsamples = 27\nvalue = [15, 12]\nclass = No"] ;
896 -> 906 ;
907 [label="Sales <= 34.5\ngini = 0.375\nsamples = 4\nvalue = [1, 3]\nclass = Yes"] ;
906 -> 907 ;
908 [label="gini = 0.5\nsamples = 2\nvalue = [1, 1]\nclass = No"] ;
907 -> 908 ;
909 [label="gini = 0.0\nsamples = 2\nvalue = [0, 2]\nclass = Yes"] ;
907 -> 909 ;
910 [label="Sales <= 35.5\ngini = 0.476\nsamples = 23\nvalue = [14, 9]\nclass = No"] ;
906 -> 910 ;
911 [label="Duration <= 97.0\ngini = 0.245\nsamples = 7\nvalue = [6, 1]\nclass = No"] ;
910 -> 911 ;
912 [label="gini = 0.0\nsamples = 6\nvalue = [6, 0]\nclass = No"] ;
911 -> 912 ;
913 [label="gini = 0.0\nsamples = 1\nvalue = [0, 1]\nclass = Yes"] ;
911 -> 913 ;
914 [label="Duration <= 74.0\ngini = 0.5\nsamples = 16\nvalue = [8, 8]\nclass = No"] ;
910 -> 914 ;
915 [label="gini = 0.0\nsamples = 2\nvalue = [2, 0]\nclass = No"] ;
914 -> 915 ;
916 [label="Sales <= 48.75\ngini = 0.49\nsamples = 14\nvalue = [6, 8]\nclass = Yes"] ;
914 -> 916 ;
917 [label="Age <= 32.5\ngini = 0.375\nsamples = 8\nvalue = [2, 6]\nclass = Yes"] ;
916 -> 917 ;
918 [label="gini = 0.0\nsamples = 1\nvalue = [1, 0]\nclass = No"] ;
917 -> 918 ;
919 [label="Duration <= 78.0\ngini = 0.245\nsamples = 7\nvalue = [1, 6]\nclass = Yes"] ;
917 -> 919 ;
920 [label="Duration <= 75.5\ngini = 0.5\nsamples = 2\nvalue = [1, 1]\nclass = No"] ;
919 -> 920 ;
921 [label="gini = 0.0\nsamples = 1\nvalue = [0, 1]\nclass = Yes"] ;
920 -> 921 ;
922 [label="gini = 0.0\nsamples = 1\nvalue = [1, 0]\nclass = No"] ;
920 -> 922 ;
923 [label="gini = 0.0\nsamples = 5\nvalue = [0, 5]\nclass = Yes"] ;
919 -> 923 ;
924 [label="Sales <= 75.5\ngini = 0.444\nsamples = 6\nvalue = [4, 2]\nclass = No"] ;
916 -> 924 ;
925 [label="Duration <= 78.5\ngini = 0.32\nsamples = 5\nvalue = [4, 1]\nclass = No"] ;
924 -> 925 ;
926 [label="gini = 0.0\nsamples = 1\nvalue = [0, 1]\nclass = Yes"] ;
925 -> 926 ;
927 [label="gini = 0.0\nsamples = 4\nvalue = [4, 0]\nclass = No"] ;
925 -> 927 ;
928 [label="gini = 0.0\nsamples = 1\nvalue = [0, 1]\nclass = Yes"] ;
924 -> 928 ;
929 [label="Duration <= 82.0\ngini = 0.461\nsamples = 25\nvalue = [9, 16]\nclass = Yes"] ;
895 -> 929 ;
930 [label="Sales <= 80.6\ngini = 0.346\nsamples = 18\nvalue = [4, 14]\nclass = Yes"] ;
929 -> 930 ;
931 [label="Age <= 37.0\ngini = 0.231\nsamples = 15\nvalue = [2, 13]\nclass = Yes"] ;
930 -> 931 ;
932 [label="Age <= 30.5\ngini = 0.142\nsamples = 13\nvalue = [1, 12]\nclass = Yes"] ;
931 -> 932 ;
933 [label="Duration <= 55.5\ngini = 0.444\nsamples = 3\nvalue = [1, 2]\nclass = Yes"] ;
932 -> 933 ;
934 [label="gini = 0.0\nsamples = 2\nvalue = [0, 2]\nclass = Yes"] ;
933 -> 934 ;
935 [label="gini = 0.0\nsamples = 1\nvalue = [1, 0]\nclass = No"] ;
933 -> 935 ;
936 [label="gini = 0.0\nsamples = 10\nvalue = [0, 10]\nclass = Yes"] ;
932 -> 936 ;
937 [label="Commision <= 32.67\ngini = 0.5\nsamples = 2\nvalue = [1, 1]\nclass = No"] ;
931 -> 937 ;
938 [label="gini = 0.0\nsamples = 1\nvalue = [0, 1]\nclass = Yes"] ;
937 -> 938 ;
939 [label="gini = 0.0\nsamples = 1\nvalue = [1, 0]\nclass = No"] ;
937 -> 939 ;
940 [label="Age <= 33.5\ngini = 0.444\nsamples = 3\nvalue = [2, 1]\nclass = No"] ;
930 -> 940 ;
941 [label="gini = 0.0\nsamples = 2\nvalue = [2, 0]\nclass = No"] ;
940 -> 941 ;
942 [label="gini = 0.0\nsamples = 1\nvalue = [0, 1]\nclass = Yes"] ;
940 -> 942 ;
943 [label="Duration <= 100.5\ngini = 0.408\nsamples = 7\nvalue = [5, 2]\nclass = No"] ;
929 -> 943 ;
944 [label="gini = 0.0\nsamples = 4\nvalue = [4, 0]\nclass = No"] ;
943 -> 944 ;
945 [label="Commision <= 11.88\ngini = 0.444\nsamples = 3\nvalue = [1, 2]\nclass = Yes"] ;
943 -> 945 ;
946 [label="gini = 0.0\nsamples = 1\nvalue = [1, 0]\nclass = No"] ;
945 -> 946 ;
947 [label="gini = 0.0\nsamples = 2\nvalue = [0, 2]\nclass = Yes"] ;
945 -> 947 ;
948 [label="Sales <= 82.6\ngini = 0.287\nsamples = 23\nvalue = [19, 4]\nclass = No"] ;
894 -> 948 ;
949 [label="Age <= 34.0\ngini = 0.236\nsamples = 22\nvalue = [19, 3]\nclass = No"] ;
948 -> 949 ;
950 [label="gini = 0.0\nsamples = 7\nvalue = [7, 0]\nclass = No"] ;
949 -> 950 ;
951 [label="Duration <= 145.5\ngini = 0.32\nsamples = 15\nvalue = [12, 3]\nclass = No"] ;
949 -> 951 ;
952 [label="gini = 0.0\nsamples = 5\nvalue = [5, 0]\nclass = No"] ;
951 -> 952 ;
953 [label="Destination <= 0.5\ngini = 0.42\nsamples = 10\nvalue = [7, 3]\nclass = No"] ;
951 -> 953 ;
954 [label="Sales <= 63.5\ngini = 0.469\nsamples = 8\nvalue = [5, 3]\nclass = No"] ;
953 -> 954 ;
955 [label="Sales <= 43.25\ngini = 0.408\nsamples = 7\nvalue = [5, 2]\nclass = No"] ;
954 -> 955 ;
956 [label="Sales <= 33.0\ngini = 0.5\nsamples = 2\nvalue = [1, 1]\nclass = No"] ;
955 -> 956 ;
957 [label="gini = 0.0\nsamples = 1\nvalue = [1, 0]\nclass = No"] ;
956 -> 957 ;
958 [label="gini = 0.0\nsamples = 1\nvalue = [0, 1]\nclass = Yes"] ;
956 -> 958 ;
959 [label="Sales <= 51.5\ngini = 0.32\nsamples = 5\nvalue = [4, 1]\nclass = No"] ;
955 -> 959 ;
960 [label="gini = 0.0\nsamples = 3\nvalue = [3, 0]\nclass = No"] ;
959 -> 960 ;
961 [label="Sales <= 55.5\ngini = 0.5\nsamples = 2\nvalue = [1, 1]\nclass = No"] ;
959 -> 961 ;
962 [label="gini = 0.0\nsamples = 1\nvalue = [0, 1]\nclass = Yes"] ;
961 -> 962 ;
963 [label="gini = 0.0\nsamples = 1\nvalue = [1, 0]\nclass = No"] ;
961 -> 963 ;
964 [label="gini = 0.0\nsamples = 1\nvalue = [0, 1]\nclass = Yes"] ;
954 -> 964 ;
965 [label="gini = 0.0\nsamples = 2\nvalue = [2, 0]\nclass = No"] ;
953 -> 965 ;
966 [label="gini = 0.0\nsamples = 1\nvalue = [0, 1]\nclass = Yes"] ;
948 -> 966 ;
967 [label="Product Name <= 2.5\ngini = 0.282\nsamples = 112\nvalue = [93, 19]\nclass = No"] ;
757 -> 967 ;
968 [label="Duration <= 68.5\ngini = 0.256\nsamples = 106\nvalue = [90, 16]\nclass = No"] ;
967 -> 968 ;
969 [label="Duration <= 21.5\ngini = 0.215\nsamples = 90\nvalue = [79, 11]\nclass = No"] ;
968 -> 969 ;
970 [label="Channel <= 0.5\ngini = 0.335\nsamples = 47\nvalue = [37, 10]\nclass = No"] ;
969 -> 970 ;
971 [label="gini = 0.0\nsamples = 3\nvalue = [0, 3]\nclass = Yes"] ;
970 -> 971 ;
972 [label="Duration <= 20.5\ngini = 0.268\nsamples = 44\nvalue = [37, 7]\nclass = No"] ;
970 -> 972 ;
973 [label="Age <= 56.5\ngini = 0.219\nsamples = 40\nvalue = [35, 5]\nclass = No"] ;
972 -> 973 ;
974 [label="Duration <= 18.5\ngini = 0.161\nsamples = 34\nvalue = [31, 3]\nclass = No"] ;
973 -> 974 ;
975 [label="Age <= 43.5\ngini = 0.124\nsamples = 30\nvalue = [28, 2]\nclass = No"] ;
974 -> 975 ;
976 [label="Duration <= 8.5\ngini = 0.26\nsamples = 13\nvalue = [11, 2]\nclass = No"] ;
975 -> 976 ;
977 [label="Commision <= 8.91\ngini = 0.444\nsamples = 6\nvalue = [4, 2]\nclass = No"] ;
976 -> 977 ;
978 [label="gini = 0.0\nsamples = 1\nvalue = [0, 1]\nclass = Yes"] ;
977 -> 978 ;
979 [label="Sales <= 54.45\ngini = 0.32\nsamples = 5\nvalue = [4, 1]\nclass = No"] ;
977 -> 979 ;
980 [label="gini = 0.0\nsamples = 3\nvalue = [3, 0]\nclass = No"] ;
979 -> 980 ;
981 [label="Age <= 42.5\ngini = 0.5\nsamples = 2\nvalue = [1, 1]\nclass = No"] ;
979 -> 981 ;
982 [label="gini = 0.0\nsamples = 1\nvalue = [1, 0]\nclass = No"] ;
981 -> 982 ;
983 [label="gini = 0.0\nsamples = 1\nvalue = [0, 1]\nclass = Yes"] ;
981 -> 983 ;
984 [label="gini = 0.0\nsamples = 7\nvalue = [7, 0]\nclass = No"] ;
976 -> 984 ;
985 [label="gini = 0.0\nsamples = 17\nvalue = [17, 0]\nclass = No"] ;
975 -> 985 ;
986 [label="Commision <= 29.7\ngini = 0.375\nsamples = 4\nvalue = [3, 1]\nclass = No"] ;
974 -> 986 ;
987 [label="Destination <= 0.5\ngini = 0.5\nsamples = 2\nvalue = [1, 1]\nclass = No"] ;
986 -> 987 ;
988 [label="gini = 0.0\nsamples = 1\nvalue = [0, 1]\nclass = Yes"] ;
987 -> 988 ;
989 [label="gini = 0.0\nsamples = 1\nvalue = [1, 0]\nclass = No"] ;
987 -> 989 ;
990 [label="gini = 0.0\nsamples = 2\nvalue = [2, 0]\nclass = No"] ;
986 -> 990 ;
991 [label="Duration <= 13.0\ngini = 0.444\nsamples = 6\nvalue = [4, 2]\nclass = No"] ;
973 -> 991 ;
992 [label="Destination <= 0.5\ngini = 0.444\nsamples = 3\nvalue = [1, 2]\nclass = Yes"] ;
991 -> 992 ;
993 [label="Age <= 59.0\ngini = 0.5\nsamples = 2\nvalue = [1, 1]\nclass = No"] ;
992 -> 993 ;
994 [label="gini = 0.0\nsamples = 1\nvalue = [1, 0]\nclass = No"] ;
993 -> 994 ;
995 [label="gini = 0.0\nsamples = 1\nvalue = [0, 1]\nclass = Yes"] ;
993 -> 995 ;
996 [label="gini = 0.0\nsamples = 1\nvalue = [0, 1]\nclass = Yes"] ;
992 -> 996 ;
997 [label="gini = 0.0\nsamples = 3\nvalue = [3, 0]\nclass = No"] ;
991 -> 997 ;
998 [label="Sales <= 54.45\ngini = 0.5\nsamples = 4\nvalue = [2, 2]\nclass = No"] ;
972 -> 998 ;
999 [label="gini = 0.0\nsamples = 1\nvalue = [0, 1]\nclass = Yes"] ;
998 -> 999 ;
1000 [label="Age <= 47.5\ngini = 0.444\nsamples = 3\nvalue = [2, 1]\nclass = No"] ;
998 -> 1000 ;
1001 [label="gini = 0.0\nsamples = 1\nvalue = [1, 0]\nclass = No"] ;
1000 -> 1001 ;
1002 [label="Age <= 55.5\ngini = 0.5\nsamples = 2\nvalue = [1, 1]\nclass = No"] ;
1000 -> 1002 ;
1003 [label="gini = 0.0\nsamples = 1\nvalue = [0, 1]\nclass = Yes"] ;
1002 -> 1003 ;
1004 [label="gini = 0.0\nsamples = 1\nvalue = [1, 0]\nclass = No"] ;
1002 -> 1004 ;
1005 [label="Commision <= 43.065\ngini = 0.045\nsamples = 43\nvalue = [42, 1]\nclass = No"] ;
969 -> 1005 ;
1006 [label="gini = 0.0\nsamples = 36\nvalue = [36, 0]\nclass = No"] ;
1005 -> 1006 ;
1007 [label="Destination <= 1.5\ngini = 0.245\nsamples = 7\nvalue = [6, 1]\nclass = No"] ;
1005 -> 1007 ;
1008 [label="gini = 0.0\nsamples = 6\nvalue = [6, 0]\nclass = No"] ;
1007 -> 1008 ;
1009 [label="gini = 0.0\nsamples = 1\nvalue = [0, 1]\nclass = Yes"] ;
1007 -> 1009 ;
1010 [label="Duration <= 93.5\ngini = 0.43\nsamples = 16\nvalue = [11, 5]\nclass = No"] ;
968 -> 1010 ;
1011 [label="Commision <= 29.7\ngini = 0.32\nsamples = 5\nvalue = [1, 4]\nclass = Yes"] ;
1010 -> 1011 ;
1012 [label="Duration <= 81.5\ngini = 0.5\nsamples = 2\nvalue = [1, 1]\nclass = No"] ;
1011 -> 1012 ;
1013 [label="gini = 0.0\nsamples = 1\nvalue = [1, 0]\nclass = No"] ;
1012 -> 1013 ;
1014 [label="gini = 0.0\nsamples = 1\nvalue = [0, 1]\nclass = Yes"] ;
1012 -> 1014 ;
1015 [label="gini = 0.0\nsamples = 3\nvalue = [0, 3]\nclass = Yes"] ;
1011 -> 1015 ;
1016 [label="Age <= 49.0\ngini = 0.165\nsamples = 11\nvalue = [10, 1]\nclass = No"] ;
1010 -> 1016 ;
1017 [label="gini = 0.0\nsamples = 7\nvalue = [7, 0]\nclass = No"] ;
1016 -> 1017 ;
1018 [label="Age <= 50.5\ngini = 0.375\nsamples = 4\nvalue = [3, 1]\nclass = No"] ;
1016 -> 1018 ;
1019 [label="gini = 0.0\nsamples = 1\nvalue = [0, 1]\nclass = Yes"] ;
1018 -> 1019 ;
1020 [label="gini = 0.0\nsamples = 3\nvalue = [3, 0]\nclass = No"] ;
1018 -> 1020 ;
1021 [label="Duration <= 10.5\ngini = 0.5\nsamples = 6\nvalue = [3, 3]\nclass = No"] ;
967 -> 1021 ;
1022 [label="gini = 0.0\nsamples = 2\nvalue = [2, 0]\nclass = No"] ;
1021 -> 1022 ;
1023 [label="Commision <= 21.435\ngini = 0.375\nsamples = 4\nvalue = [1, 3]\nclass = Yes"] ;
1021 -> 1023 ;
1024 [label="gini = 0.0\nsamples = 1\nvalue = [1, 0]\nclass = No"] ;
1023 -> 1024 ;
1025 [label="gini = 0.0\nsamples = 3\nvalue = [0, 3]\nclass = Yes"] ;
1023 -> 1025 ;
1026 [label="Destination <= 0.5\ngini = 0.499\nsamples = 122\nvalue = [63, 59]\nclass = No"] ;
636 -> 1026 ;
1027 [label="Agency_Code <= 1.5\ngini = 0.4\nsamples = 29\nvalue = [21, 8]\nclass = No"] ;
1026 -> 1027 ;
1028 [label="Duration <= 26.5\ngini = 0.463\nsamples = 11\nvalue = [4, 7]\nclass = Yes"] ;
1027 -> 1028 ;
1029 [label="gini = 0.0\nsamples = 3\nvalue = [0, 3]\nclass = Yes"] ;
1028 -> 1029 ;
1030 [label="Duration <= 98.5\ngini = 0.5\nsamples = 8\nvalue = [4, 4]\nclass = No"] ;
1028 -> 1030 ;
1031 [label="gini = 0.0\nsamples = 2\nvalue = [2, 0]\nclass = No"] ;
1030 -> 1031 ;
1032 [label="Age <= 41.5\ngini = 0.444\nsamples = 6\nvalue = [2, 4]\nclass = Yes"] ;
1030 -> 1032 ;
1033 [label="Commision <= 36.775\ngini = 0.32\nsamples = 5\nvalue = [1, 4]\nclass = Yes"] ;
1032 -> 1033 ;
1034 [label="gini = 0.0\nsamples = 2\nvalue = [0, 2]\nclass = Yes"] ;
1033 -> 1034 ;
1035 [label="Age <= 37.0\ngini = 0.444\nsamples = 3\nvalue = [1, 2]\nclass = Yes"] ;
1033 -> 1035 ;
1036 [label="gini = 0.0\nsamples = 1\nvalue = [0, 1]\nclass = Yes"] ;
1035 -> 1036 ;
1037 [label="Product Name <= 3.5\ngini = 0.5\nsamples = 2\nvalue = [1, 1]\nclass = No"] ;
1035 -> 1037 ;
1038 [label="gini = 0.0\nsamples = 1\nvalue = [1, 0]\nclass = No"] ;
1037 -> 1038 ;
1039 [label="gini = 0.0\nsamples = 1\nvalue = [0, 1]\nclass = Yes"] ;
1037 -> 1039 ;
1040 [label="gini = 0.0\nsamples = 1\nvalue = [1, 0]\nclass = No"] ;
1032 -> 1040 ;
1041 [label="Duration <= 5.5\ngini = 0.105\nsamples = 18\nvalue = [17, 1]\nclass = No"] ;
1027 -> 1041 ;
1042 [label="gini = 0.0\nsamples = 1\nvalue = [0, 1]\nclass = Yes"] ;
1041 -> 1042 ;
1043 [label="gini = 0.0\nsamples = 17\nvalue = [17, 0]\nclass = No"] ;
1041 -> 1043 ;
1044 [label="Age <= 31.5\ngini = 0.495\nsamples = 93\nvalue = [42, 51]\nclass = Yes"] ;
1026 -> 1044 ;
1045 [label="Destination <= 1.5\ngini = 0.408\nsamples = 21\nvalue = [6, 15]\nclass = Yes"] ;
1044 -> 1045 ;
1046 [label="Duration <= 37.5\ngini = 0.48\nsamples = 15\nvalue = [6, 9]\nclass = Yes"] ;
1045 -> 1046 ;
1047 [label="gini = 0.0\nsamples = 3\nvalue = [0, 3]\nclass = Yes"] ;
1046 -> 1047 ;
1048 [label="Age <= 29.5\ngini = 0.5\nsamples = 12\nvalue = [6, 6]\nclass = No"] ;
1046 -> 1048 ;
1049 [label="Agency_Code <= 1.5\ngini = 0.469\nsamples = 8\nvalue = [5, 3]\nclass = No"] ;
1048 -> 1049 ;
1050 [label="gini = 0.0\nsamples = 3\nvalue = [3, 0]\nclass = No"] ;
1049 -> 1050 ;
1051 [label="Sales <= 108.0\ngini = 0.48\nsamples = 5\nvalue = [2, 3]\nclass = Yes"] ;
1049 -> 1051 ;
1052 [label="gini = 0.0\nsamples = 2\nvalue = [0, 2]\nclass = Yes"] ;
1051 -> 1052 ;
1053 [label="Duration <= 103.0\ngini = 0.444\nsamples = 3\nvalue = [2, 1]\nclass = No"] ;
1051 -> 1053 ;
1054 [label="gini = 0.0\nsamples = 2\nvalue = [2, 0]\nclass = No"] ;
1053 -> 1054 ;
1055 [label="gini = 0.0\nsamples = 1\nvalue = [0, 1]\nclass = Yes"] ;
1053 -> 1055 ;
1056 [label="Age <= 30.5\ngini = 0.375\nsamples = 4\nvalue = [1, 3]\nclass = Yes"] ;
1048 -> 1056 ;
1057 [label="gini = 0.0\nsamples = 3\nvalue = [0, 3]\nclass = Yes"] ;
1056 -> 1057 ;
1058 [label="gini = 0.0\nsamples = 1\nvalue = [1, 0]\nclass = No"] ;
1056 -> 1058 ;
1059 [label="gini = 0.0\nsamples = 6\nvalue = [0, 6]\nclass = Yes"] ;
1045 -> 1059 ;
1060 [label="Product Name <= 2.5\ngini = 0.5\nsamples = 72\nvalue = [36, 36]\nclass = No"] ;
1044 -> 1060 ;
1061 [label="Sales <= 100.5\ngini = 0.496\nsamples = 59\nvalue = [32, 27]\nclass = No"] ;
1060 -> 1061 ;
1062 [label="Duration <= 111.0\ngini = 0.457\nsamples = 17\nvalue = [6, 11]\nclass = Yes"] ;
1061 -> 1062 ;
1063 [label="Duration <= 52.5\ngini = 0.408\nsamples = 14\nvalue = [4, 10]\nclass = Yes"] ;
1062 -> 1063 ;
1064 [label="Duration <= 40.5\ngini = 0.494\nsamples = 9\nvalue = [4, 5]\nclass = Yes"] ;
1063 -> 1064 ;
1065 [label="Age <= 45.5\ngini = 0.408\nsamples = 7\nvalue = [2, 5]\nclass = Yes"] ;
1064 -> 1065 ;
1066 [label="Destination <= 1.5\ngini = 0.48\nsamples = 5\nvalue = [2, 3]\nclass = Yes"] ;
1065 -> 1066 ;
1067 [label="gini = 0.0\nsamples = 1\nvalue = [1, 0]\nclass = No"] ;
1066 -> 1067 ;
1068 [label="Duration <= 19.5\ngini = 0.375\nsamples = 4\nvalue = [1, 3]\nclass = Yes"] ;
1066 -> 1068 ;
1069 [label="gini = 0.0\nsamples = 2\nvalue = [0, 2]\nclass = Yes"] ;
1068 -> 1069 ;
1070 [label="Duration <= 28.0\ngini = 0.5\nsamples = 2\nvalue = [1, 1]\nclass = No"] ;
1068 -> 1070 ;
